/* CNN Parameter Values - Generated by TensorFlow */
#ifndef CNN_PARAMS_H
#define CNN_PARAMS_H

/* Layer 0: Lambda (RGB to Grayscale) - No parameters */

/* Layer 1: Conv2D */
#define CONV0_OUT_CHANNELS 4
#define CONV0_IN_CHANNELS 1
#define CONV0_KERNEL_SIZE 3

/* Conv0 weights [filters][channels][height][width] */
static const float conv0_weights[CONV0_OUT_CHANNELS][CONV0_IN_CHANNELS][CONV0_KERNEL_SIZE][CONV0_KERNEL_SIZE] = {{ {{0.07303780f, -0.25027540f, 0.36240274f},
   {-0.19803293f, -0.51869911f, -0.42136279f},
   {0.35988399f, 0.63100445f, 0.04474569f}}},
 { {{0.40604028f, 0.02246304f, -0.43270564f},
   {0.38276184f, 0.10025378f, -0.52116561f},
   {0.44998357f, 0.16061155f, -0.61522967f}}},
 { {{0.55369663f, 0.43764889f, 0.45140973f},
   {0.47898856f, 0.29280022f, 0.27172679f},
   {0.28792208f, -0.12185961f, -0.31910890f}}},
 { {{0.30396515f, 0.67488581f, -0.10453896f},
   {0.23843960f, -0.29540268f, 0.39027983f},
   {-0.47034663f, -0.59721905f, -0.30337644f}}}};

/* Conv0 biases [filters] */
static const float conv0_biases[CONV0_OUT_CHANNELS] = {-0.01474645f, 0.02532847f, -0.34981662f, 0.03707806f};

/* Layer 2: MaxPooling2D - Pool size: (2, 2) */
#define POOL1_SIZE 2

/* Layer 3: Conv2D */
#define CONV1_OUT_CHANNELS 8
#define CONV1_IN_CHANNELS 4
#define CONV1_KERNEL_SIZE 3

/* Conv1 weights [filters][channels][height][width] */
static const float conv1_weights[CONV1_OUT_CHANNELS][CONV1_IN_CHANNELS][CONV1_KERNEL_SIZE][CONV1_KERNEL_SIZE] = {{ {{-0.10064951f, -0.48985863f, -0.24422169f},
   {-0.61413950f, -1.10063481f, -0.63697368f},
   {-0.07508518f, -0.34675241f, -0.09521356f}},
  {{0.31016600f, 0.77438104f, -0.10168667f},
   {0.11165224f, 1.07724214f, -0.19182573f},
   {-0.17576753f, 0.85100365f, -0.22304168f}},
  {{-0.29124692f, 0.14360036f, 0.19649829f},
   {-0.31740135f, 0.21720853f, 0.17720062f},
   {-0.06458203f, -0.12808120f, 0.21401840f}},
  {{0.53958815f, -0.06168598f, -0.28204998f},
   {-0.37019318f, -1.50454271f, -0.94382155f},
   {0.02876967f, -0.14992595f, 0.00371462f}}},
 { {{0.55232507f, 0.08933726f, 0.57118732f},
   {0.61782372f, 0.39952832f, -0.02398485f},
   {-0.11686575f, 0.39639598f, -0.16261603f}},
  {{-0.21035883f, -0.13266072f, -0.12129703f},
   {1.02564085f, -0.75328934f, 0.35477754f},
   {0.29110983f, 1.41976857f, 0.10860687f}},
  {{0.11971514f, -0.06706302f, 0.09214506f},
   {-0.20120654f, -0.01526062f, 0.07469702f},
   {-0.41142046f, -0.21502769f, 0.01808966f}},
  {{-0.01186625f, 0.10531106f, -0.21932463f},
   {-0.10831115f, 0.65352207f, -0.72955477f},
   {0.35273397f, 0.17194454f, 0.23513173f}}},
 { {{0.52020681f, -0.96280634f, -1.10476124f},
   {-1.21215272f, -1.59212613f, 0.30062097f},
   {-1.47429800f, -0.07490159f, 0.35705397f}},
  {{-0.74209583f, -0.52891272f, 0.21124770f},
   {-0.00548102f, 0.81820631f, 0.09089683f},
   {0.34411132f, -0.42825663f, -0.15178582f}},
  {{-0.26710245f, 0.26521239f, 0.13391007f},
   {0.19290842f, 0.10363659f, -0.60891730f},
   {0.43313816f, -0.43488082f, 0.42180136f}},
  {{-0.31075516f, -0.04827130f, 0.09397580f},
   {-0.21124959f, 0.71339053f, 0.16346189f},
   {0.17923920f, -0.03738458f, -0.30483043f}}},
 { {{-0.59386533f, -0.86044556f, 1.10393167f},
   {0.15167709f, -0.13965030f, -0.05972759f},
   {0.24381109f, 0.28516242f, -1.15249085f}},
  {{-0.64498037f, -0.06048794f, 0.77010566f},
   {0.35724366f, -0.30238920f, -0.18017727f},
   {0.05677146f, 0.19856566f, -0.81226468f}},
  {{0.30917513f, 0.26210368f, 0.00619859f},
   {-0.13336287f, 0.16995926f, 0.16949341f},
   {-0.04116403f, -0.35895905f, 0.06372645f}},
  {{0.34317228f, 0.03577106f, -0.89957899f},
   {-0.46720892f, 0.37892982f, -0.27490023f},
   {-0.33625278f, -0.11811517f, 0.46681571f}}},
 { {{1.02815259f, 0.61453718f, 0.46414828f},
   {1.01076293f, 0.57655096f, 0.48112616f},
   {0.24458517f, 0.23528628f, 0.24747171f}},
  {{-0.70652479f, -0.05035701f, 0.00915812f},
   {-0.43832806f, -0.59605271f, -0.13706250f},
   {-0.54015964f, -0.66888237f, -0.65279818f}},
  {{0.19693814f, -0.02398606f, 0.02863193f},
   {0.12789345f, 0.06152273f, -0.18176126f},
   {0.09986777f, -0.26217687f, -0.26199540f}},
  {{0.28175110f, -0.23394822f, 0.35412711f},
   {0.58762604f, 0.23864065f, 0.43798086f},
   {0.59205276f, 0.32441565f, 0.14407419f}}},
 { {{0.77103812f, 0.92659992f, 0.70149368f},
   {0.09562128f, 0.06215994f, 0.10378466f},
   {-0.70205069f, -0.70748025f, -0.58164173f}},
  {{-0.84809518f, -0.92008334f, 0.08335761f},
   {-1.02660203f, -1.07425344f, 0.10014575f},
   {-0.46657884f, -1.05544508f, 0.12712854f}},
  {{-0.08916792f, -0.13724376f, -0.51674491f},
   {0.30829337f, 0.12519066f, -0.29105246f},
   {0.35051587f, 0.17335561f, -0.00304646f}},
  {{-0.05519428f, 0.48388028f, 0.08229650f},
   {-0.03386410f, 0.08939409f, 0.14453280f},
   {-0.18539843f, 0.10528860f, 0.00320063f}}},
 { {{-0.15592898f, -0.26951495f, -0.13926917f},
   {-0.00161813f, -0.45009413f, -0.24579726f},
   {-0.07599012f, -0.01155694f, -0.28042328f}},
  {{0.00653507f, -0.18216808f, -0.11382928f},
   {0.24262640f, 0.04676172f, 0.28950265f},
   {0.32029614f, -0.20281333f, 0.35304171f}},
  {{0.09860069f, 0.05154531f, -0.10600053f},
   {0.24900101f, -0.12666184f, -0.54786801f},
   {0.64671785f, -0.07607513f, -0.47637233f}},
  {{-0.34881869f, -0.14092727f, 0.54243565f},
   {-0.77141660f, 0.09590695f, 0.90363789f},
   {0.26867145f, -0.05054889f, 0.11330751f}}},
 { {{-0.88582516f, -0.72783446f, -0.29770678f},
   {-1.61206245f, -1.44436598f, -0.98046911f},
   {-0.62585306f, -0.18310763f, -0.22133286f}},
  {{0.05085058f, 0.05231278f, 0.19054174f},
   {-1.73925793f, -1.69087195f, -0.32357892f},
   {-1.23918974f, -0.94214129f, -0.06440143f}},
  {{0.10888331f, 0.27494168f, -0.15890542f},
   {0.14008926f, -0.03995927f, -0.22974154f},
   {-0.32112631f, 0.10178524f, 0.17917767f}},
  {{0.19592483f, -0.91942209f, -0.84790957f},
   {-0.10098018f, -0.81491756f, -1.89366782f},
   {0.41729969f, 0.06934759f, -0.24336153f}}}};

/* Conv1 biases [filters] */
static const float conv1_biases[CONV1_OUT_CHANNELS] = {0.08381178f, 0.33314300f, 0.16349703f, -0.27670011f,
 -0.03471430f, 0.09570909f, 0.13382287f, 0.64540797f};

/* Layer 4: MaxPooling2D - Pool size: (2, 2) */
#define POOL3_SIZE 2

/* Layer 5: Flatten - No parameters */

/* Layer 6: Dense */
#define DENSE_INPUT_SIZE 512
#define DENSE_OUTPUT_SIZE 10

/* Dense weights [input_size][output_size] */
static const float dense_weights[DENSE_INPUT_SIZE][DENSE_OUTPUT_SIZE] = {{0.17914923f, -0.05071485f, -0.01200484f, 0.03713076f, -0.16361189f, -0.02789509f, -0.14574315f, -0.02270923f, 0.23890264f, 0.03875306f},
 {-0.36823201f, 0.13035817f, 0.10624840f, 0.10503244f, 0.33513314f, -0.13101067f, 0.05083974f, -0.32786107f, 0.34282675f, -0.48257077f},
 {-0.11348169f, -0.04648730f, 0.08377813f, -0.00674869f, -0.25168055f, 0.16428868f, 0.18842584f, 0.00879270f, 0.12378333f, 0.09354807f},
 {0.09311581f, 0.07932387f, 0.20237753f, -0.19794713f, 0.17372838f, -0.65562469f, 0.05100745f, -0.10244285f, 0.24776207f, -0.00577460f},
 {0.02238557f, 0.27526164f, 0.02124025f, 0.05542516f, -0.04187947f, -0.10696110f, -0.14639367f, -0.21343841f, -0.06315318f, 0.04254280f},
 {0.11381066f, -0.02077343f, -0.14437595f, -0.33846453f, 0.06302039f, -0.27284864f, 0.16677183f, 0.02266078f, 0.54324019f, -0.01582380f},
 {-0.38856563f, 0.00770202f, -0.10897186f, 0.06668699f, 0.04491723f, 0.19966316f, 0.31795207f, -0.26181597f, -0.56771404f, 0.11056181f},
 {-0.29487586f, -0.27478132f, 0.01755212f, 0.07555105f, 0.49346155f, 0.23142272f, 0.03059628f, -0.14685908f, -0.09910012f, -0.17975582f},
 {-0.30710310f, 0.42403409f, -0.10491866f, 0.16869514f, -0.07381831f, -0.03753581f, 0.26863325f, -0.48560452f, -0.28903192f, 0.09024777f},
 {-0.44930235f, 0.22556072f, 0.06009064f, 0.02627838f, 0.28970838f, -0.11399820f, 0.11571076f, 0.00134201f, 0.26479557f, -0.42053178f},
 {-0.33923692f, 0.14913692f, 0.21952985f, -0.28716725f, -0.04971252f, 0.32126889f, 0.21716905f, -0.10869578f, -0.13243857f, 0.10351180f},
 {0.27093074f, 0.03070558f, -0.13668609f, -0.06484338f, 0.03839799f, -0.51621419f, -0.25288072f, 0.11792908f, -0.00369297f, -0.02022748f},
 {0.21876851f, -0.24269290f, -0.05680455f, 0.00170612f, -0.08931376f, -0.07796147f, 0.01394784f, 0.06717966f, 0.18079504f, -0.13782990f},
 {-0.11392129f, -0.09530392f, -0.18466069f, 0.10582412f, 0.17802626f, 0.06473856f, -0.46217448f, 0.11166719f, 0.31487599f, -0.04265305f},
 {-0.42200860f, 0.21742471f, 0.18384965f, 0.14234349f, -0.34681249f, -0.04580443f, -0.35280034f, 0.06585186f, -0.22406600f, 0.29472026f},
 {0.46171680f, 0.02384873f, -0.34971562f, 0.14205112f, -0.23497479f, -0.20271985f, -0.09169415f, -0.20789519f, 0.27633899f, 0.05166278f},
 {0.04254049f, 0.46371576f, -0.13375142f, 0.04370424f, 0.10484979f, -0.02989434f, -0.06629757f, -0.49194568f, -0.08857206f, 0.04875091f},
 {-0.10515959f, -0.26857382f, 0.07896254f, 0.24691142f, 0.08847009f, 0.01537702f, -0.00823714f, 0.20969397f, -0.07256959f, -0.18739150f},
 {-0.42684332f, 0.13199835f, 0.21505979f, -0.18240318f, -0.31712025f, 0.21047379f, 0.46531114f, -0.09477847f, -0.15125385f, 0.28551352f},
 {0.12462610f, -0.36989546f, -0.37997952f, 0.05819544f, 0.33897614f, -0.36061433f, -0.10409831f, 0.38664436f, 0.10992493f, 0.03020710f},
 {0.34843606f, -0.03512669f, 0.03113974f, -0.08405804f, -0.05434225f, 0.20635810f, -0.11010393f, -0.08417155f, 0.01221058f, -0.04591740f},
 {-0.19156659f, 0.15795456f, 0.02685912f, -0.20523851f, 0.12136380f, 0.01620895f, -0.15115376f, -0.20979877f, -0.01378641f, 0.02857011f},
 {-0.22841582f, 0.03015503f, 0.13085510f, 0.20508239f, -0.33378848f, 0.14443013f, -0.06638458f, -0.10339080f, -0.06788665f, 0.07103410f},
 {0.25775895f, -0.22947195f, 0.05911490f, -0.22758390f, -0.53854990f, 0.08183733f, -0.21298082f, 0.26314452f, 0.11451684f, -0.00893968f},
 {0.13405684f, 0.03905385f, -0.19651870f, 0.20250516f, 0.19492111f, -0.30542499f, -0.27304289f, 0.04229392f, 0.29536170f, -0.33111623f},
 {-0.17112650f, -0.45858148f, -0.21087337f, 0.01122993f, 0.09065015f, -0.11385842f, 0.24656807f, 0.49608877f, -0.00588917f, -0.23143984f},
 {-0.13205341f, 0.28005773f, 0.11620013f, -0.19782114f, -0.21560095f, 0.24792270f, -0.04489122f, 0.22796428f, -0.30625689f, 0.01785477f},
 {-0.03084075f, -0.20705199f, -0.13191031f, 0.11994741f, 0.21417767f, -0.12733318f, 0.15160441f, 0.31056368f, 0.02794455f, -0.16465484f},
 {-0.04462499f, 0.05999000f, 0.22538494f, 0.12456138f, -0.36596304f, -0.14699808f, -0.04729705f, -0.11923498f, 0.13947473f, 0.35632735f},
 {0.04563692f, 0.28461251f, 0.04082692f, 0.07061306f, -0.17059201f, 0.07309699f, 0.03796127f, -0.15561831f, -0.01274294f, 0.03109682f},
 {0.08437612f, 0.17045513f, 0.05073340f, 0.29371697f, -0.25223383f, 0.18733546f, -0.10718233f, -0.31825829f, -0.18951873f, 0.12337926f},
 {0.21689807f, -0.40730774f, -0.12915902f, 0.01211680f, -0.06234070f, 0.00475702f, -0.05276923f, 0.23108308f, 0.11724290f, -0.06265612f},
 {0.00906227f, 0.36836556f, -0.20503832f, 0.11045274f, 0.10092085f, -0.05091896f, 0.07895403f, -0.32786986f, 0.18854494f, -0.27668202f},
 {-0.05891418f, -0.04548616f, -0.10015589f, 0.03370124f, -0.09566424f, -0.10889684f, 0.07475968f, 0.82863981f, -0.16912428f, -0.47906756f},
 {-0.08249263f, -0.14851575f, -0.01407097f, -0.08371845f, -0.11415282f, -0.23664041f, 0.23866391f, 0.40954375f, -0.08299901f, -0.07921615f},
 {-0.06032252f, -0.20861404f, -0.08677997f, -0.19873580f, 0.36730421f, -0.01186949f, 0.21070379f, -0.02319845f, 0.07889117f, 0.01743335f},
 {0.21276808f, 0.17666946f, 0.09487384f, 0.04854836f, -0.13827394f, 0.01025954f, -0.41373381f, -0.07052490f, -0.07471538f, 0.11283191f},
 {-0.06554802f, 0.06884456f, -0.05786452f, 0.06459781f, 0.02710652f, 0.22625446f, -0.00576732f, 0.07892624f, -0.04403856f, -0.17143151f},
 {-0.40548313f, 0.02460099f, -0.08036526f, 0.01883087f, -0.28849691f, 0.03050346f, 0.24183221f, -0.31381887f, -0.04416721f, 0.35579923f},
 {0.54517514f, -0.18690141f, -0.01285866f, 0.05406934f, -0.25940996f, -0.05226168f, 0.15385312f, -0.28313094f, 0.25882602f, -0.05483885f},
 {-0.14945458f, 0.68169624f, -0.27293777f, 0.32182378f, -0.08745099f, -0.21275556f, -0.06081279f, -0.27889711f, 0.06355517f, -0.32386824f},
 {-0.21489556f, -0.01284266f, -0.10205667f, -0.02912308f, 0.26600453f, -0.04068953f, 0.23543815f, 0.01244404f, -0.23118879f, -0.20449755f},
 {-0.12382623f, -0.58289993f, 0.02063456f, 0.00074722f, 0.05740726f, -0.11936802f, 0.25701094f, 0.25802451f, 0.14234348f, -0.07941800f},
 {-0.22355348f, 0.05226168f, -0.03137713f, -0.24775319f, -0.15434048f, 0.13908249f, -0.03811252f, -0.01908818f, 0.11278301f, 0.14717339f},
 {0.24962617f, -0.08927957f, -0.14070483f, 0.18875687f, -0.20057864f, 0.01313404f, 0.02037474f, 0.16251579f, -0.17413092f, -0.05953101f},
 {-0.12995921f, -0.05113268f, -0.11370500f, -0.18880914f, 0.07100981f, 0.03974880f, -0.11110105f, 0.17370327f, 0.15924315f, -0.07747496f},
 {-0.12260906f, 0.07242072f, -0.02126843f, 0.01725674f, -0.39113703f, 0.18331455f, -0.34104910f, 0.14698154f, -0.16492380f, 0.23406036f},
 {0.11517182f, 0.16514669f, 0.14678597f, -0.02136534f, -0.24239023f, -0.13342431f, -0.09607397f, -0.02790664f, 0.23681414f, -0.07602427f},
 {0.03588835f, 0.23078249f, -0.17322764f, 0.29938325f, -0.04744053f, -0.10056161f, -0.05906164f, -0.27470282f, -0.32223499f, -0.03948557f},
 {-0.59679830f, 0.19451615f, 0.10843867f, -0.07015604f, 0.36105064f, -0.02552015f, 0.15437643f, -0.17064494f, 0.02965681f, -0.35800347f},
 {0.51198465f, 0.13879949f, -0.31584948f, 0.24075790f, 0.01718489f, -0.40914586f, -0.00718244f, 0.28360119f, -0.01798504f, -0.14050134f},
 {-0.20422481f, 0.15279216f, -0.11881856f, 0.02008123f, -0.12100496f, 0.18636137f, 0.33716312f, -0.17018533f, -0.13003710f, 0.20861791f},
 {-0.19437900f, -0.09017614f, 0.03655729f, 0.10070799f, 0.02013586f, 0.16022918f, -0.03085410f, -0.08605549f, 0.04924281f, -0.13208036f},
 {0.19190665f, 0.06416594f, -0.05048657f, 0.01656759f, 0.05247731f, -0.16119862f, -0.30479342f, -0.04140148f, 0.01204342f, 0.10329416f},
 {-0.13027963f, 0.15403050f, -0.03522376f, -0.09843355f, -0.06480978f, 0.08555130f, -0.18268539f, -0.12481317f, 0.16300380f, 0.49766931f},
 {0.05749491f, -0.66971517f, 0.15231295f, -0.05245461f, -0.18365444f, 0.27713549f, 0.36086491f, -0.23963185f, 0.06275109f, -0.16439617f},
 {-0.01780873f, -0.19803116f, 0.05489741f, -0.07680701f, -0.09854526f, 0.03842360f, -0.20644289f, 0.19872274f, 0.15041465f, -0.02366582f},
 {-0.36121562f, 0.01444218f, 0.18765366f, 0.12960994f, 0.17316040f, 0.19969669f, 0.21420965f, -0.19685706f, -0.24155043f, -0.30061287f},
 {0.15774985f, 0.08760116f, -0.03618971f, 0.01721990f, -0.04324711f, -0.39924306f, -0.40318012f, -0.16716452f, 0.59787649f, 0.26544783f},
 {-0.07739998f, 0.13535008f, -0.16676059f, -0.16373566f, -0.48014784f, -0.26861215f, 0.01271314f, 0.50656050f, -0.00899213f, 0.25736013f},
 {0.51903200f, -0.14383364f, 0.10480148f, -0.46466145f, -0.08853505f, 0.19800262f, 0.58562285f, -0.35325864f, 0.37370449f, -0.47500470f},
 {0.02656819f, 0.02417799f, 0.12722641f, -0.05997198f, 0.03445724f, -0.10659429f, 0.06524977f, 0.08659995f, 0.04992869f, 0.08039904f},
 {-0.19664991f, 0.19721743f, 0.10642765f, -0.07686857f, 0.02834883f, -0.04115007f, -0.16337779f, 0.04730199f, 0.15474486f, 0.13949308f},
 {0.49962154f, -0.45096719f, -0.00489262f, -0.07249798f, -0.42610508f, -0.15800957f, 0.45973521f, 0.00564409f, -0.29927570f, -0.37190980f},
 {0.13828427f, -0.19638443f, -0.02095091f, -0.07996739f, 0.12299152f, 0.12628232f, -0.09572276f, 0.04366288f, -0.18309273f, -0.03817668f},
 {-0.26934573f, 0.01595406f, -0.11035188f, 0.03931242f, 0.54550487f, 0.17363542f, 0.07458842f, -0.28226751f, -0.22844669f, -0.20532651f},
 {-0.18277039f, 0.03163705f, -0.12044030f, -0.05877932f, -0.41297615f, 0.10397018f, 0.21006367f, 0.00651710f, 0.23205113f, 0.24707584f},
 {0.38177091f, 0.19613843f, -0.42036086f, 0.01221299f, 0.05479048f, -0.35068592f, -0.20708747f, -0.10404295f, 0.09599787f, 0.25946364f},
 {-0.02047752f, -0.23522733f, 0.15819517f, 0.07601216f, -0.04765023f, 0.34492463f, -0.22812055f, 0.19543195f, 0.02828053f, -0.36582252f},
 {-0.18216978f, 0.11312525f, -0.49445876f, -0.00951736f, 0.42461160f, -0.19617958f, -0.53637612f, 0.08492135f, 0.38992292f, -0.21216011f},
 {-0.08926685f, -0.12606305f, -0.16792224f, 0.28105175f, -0.25804290f, 0.06642486f, 0.19677445f, 0.09451512f, 0.00000363f, -0.36583531f},
 {0.20118555f, -0.25281632f, 0.08320234f, 0.00674183f, -0.05760111f, -0.22968611f, 0.01522382f, -0.29297027f, 0.22259298f, -0.28676358f},
 {0.06322466f, -0.02653284f, -0.37456042f, 0.31282166f, -0.00788332f, 0.32579544f, -0.13224308f, -0.07507133f, -0.47296718f, -0.01234310f},
 {0.00868395f, 0.04629967f, -0.00482901f, 0.01704544f, 0.32177728f, -0.03478801f, 0.08022037f, 0.10589422f, -0.13485926f, -0.08799025f},
 {-0.41356847f, 0.28428605f, 0.21752708f, -0.13087726f, -0.51124847f, 0.37048987f, 0.43299219f, -0.12307376f, 0.08658343f, -0.10250127f},
 {0.43812066f, -0.11333625f, -0.42974377f, 0.04540436f, 0.27452853f, -0.01519637f, -0.45738959f, 0.15462404f, -0.27170557f, -0.10005788f},
 {0.08204533f, -0.11767682f, -0.12903509f, 0.03697323f, -0.13767585f, -0.05383742f, -0.08190084f, 0.05141918f, -0.16803548f, 0.26341677f},
 {0.58387125f, -0.09399047f, -0.05560474f, -0.06415789f, -0.01326795f, 0.09709281f, -0.39716318f, 0.21153444f, 0.12547937f, -0.11214232f},
 {0.04859125f, -0.32496729f, 0.05332115f, -0.01982287f, -0.18851461f, 0.30282998f, -0.14663431f, 0.31519124f, -0.45468429f, 0.08543867f},
 {0.02369456f, -0.22695458f, -0.02346689f, -0.03424492f, -0.29346925f, -0.16218314f, 0.20599228f, -0.14006121f, 0.36741033f, 0.10643240f},
 {-0.06022769f, 0.10523026f, -0.42673630f, -0.00869314f, 0.17720923f, -0.06984720f, -0.34026387f, -0.37522581f, 0.34274402f, 0.29770589f},
 {-0.03120830f, 0.15642178f, 0.18230899f, -0.06347384f, 0.23844972f, -0.01806986f, 0.32907289f, -0.25353912f, -0.22461215f, -0.50767940f},
 {-0.13577028f, -0.00800437f, 0.20424785f, -0.25098383f, -0.35718420f, 0.26525509f, 0.51162803f, -0.21887569f, -0.25125846f, -0.17725416f},
 {-0.18169187f, -0.13704903f, -0.11784443f, 0.16774219f, -0.03195957f, 0.06366383f, -0.34743357f, 0.64336771f, -0.17047736f, 0.01119437f},
 {0.05092774f, 0.12524866f, 0.13512938f, -0.08187407f, -0.27259701f, -0.18749189f, -0.09247470f, -0.04711552f, 0.00487763f, 0.02556949f},
 {-0.20195715f, -0.04142961f, -0.00712940f, -0.15659478f, 0.04024049f, 0.31035137f, -0.31042832f, -0.02071712f, -0.34383368f, 0.05876132f},
 {0.09720707f, 0.04030926f, -0.11378384f, 0.25048780f, -0.38125002f, 0.12683395f, -0.51211393f, -0.00254637f, -0.18978104f, 0.14726511f},
 {0.35674730f, 0.40171868f, 0.08076255f, -0.11039031f, -0.26410806f, -0.29391050f, -0.16022468f, 0.11520223f, 0.07465687f, -0.39562696f},
 {0.25500369f, 0.15626176f, -0.11962508f, 0.10572290f, 0.13359657f, 0.16997738f, -0.81538105f, -0.27251035f, 0.28296253f, 0.11879070f},
 {0.05266845f, 0.05135086f, -0.04774655f, -0.05616420f, 0.22332866f, -0.06450803f, -0.15165706f, 0.45661482f, -0.00481682f, -0.24417049f},
 {0.02023045f, -0.17716449f, 0.19332196f, -0.07622268f, 0.03451364f, 0.27325004f, 0.01939368f, -0.24184577f, -0.11353590f, -0.00117202f},
 {-0.03084178f, -0.21547836f, 0.09831543f, -0.00457274f, 0.09852855f, 0.30379206f, 0.29443669f, 0.18515141f, -0.24638867f, -0.12305246f},
 {-0.01293027f, 0.12115273f, 0.02382107f, 0.15222622f, -0.32809991f, -0.09946418f, -0.02957200f, -0.01677539f, -0.00630917f, 0.15500708f},
 {0.01260049f, 0.16313905f, -0.42482314f, 0.08960789f, -0.27497387f, 0.26228249f, -0.19664964f, 0.18410270f, -0.33627400f, 0.38070413f},
 {0.29330274f, -0.02545806f, 0.12786242f, 0.20237970f, -0.44110444f, 0.12732290f, -0.17224684f, -0.09940834f, -0.49609008f, -0.08012620f},
 {0.32045725f, -0.42709249f, 0.26526758f, 0.16357169f, -0.17701961f, -0.06051474f, -0.35186011f, 0.03923491f, 0.12410349f, -0.20178276f},
 {0.33767465f, -0.07141688f, -0.25351191f, 0.10050629f, 0.13901609f, -0.25201020f, -0.91548961f, 0.19634634f, 0.32714322f, 0.32150114f},
 {-0.07082294f, 0.00602739f, 0.04916931f, -0.08583042f, 0.27586982f, -0.14177878f, -0.04208864f, 0.24819510f, 0.02251095f, -0.28642732f},
 {0.11945280f, -0.35438591f, -0.11868229f, 0.03400589f, -0.05236853f, 0.04069852f, 0.06433141f, 0.26122269f, -0.04249749f, -0.31841096f},
 {-0.24527082f, 0.06201888f, 0.04102386f, 0.01740461f, 0.00305410f, 0.32154167f, -0.20832410f, 0.03125015f, -0.14029597f, 0.02522394f},
 {0.10298937f, 0.21516916f, 0.09638792f, -0.07249986f, -0.38154653f, -0.43853268f, 0.01508110f, -0.34020504f, 0.00804274f, 0.39531693f},
 {-0.28723100f, -0.04136416f, 0.07400074f, 0.04767221f, -0.08369589f, 0.16128066f, 0.00109742f, 0.18695702f, 0.02576541f, -0.20757669f},
 {0.12788577f, 0.05985402f, 0.34152856f, 0.17715511f, -0.53530359f, 0.27327740f, -0.39736569f, -0.01846436f, -0.19086921f, 0.17462939f},
 {0.25882179f, 0.11949616f, 0.23416890f, 0.16082555f, -0.45375854f, 0.05152749f, -0.36775205f, -0.03836317f, -0.05344359f, -0.04683089f},
 {0.34692550f, -0.13307995f, -0.27521443f, 0.11024351f, 0.03825701f, -0.11560197f, -0.39045653f, -0.25756148f, 0.13087039f, 0.41773349f},
 {-0.33165523f, 0.06669997f, -0.10736807f, 0.05601057f, 0.31670913f, -0.13333322f, 0.22838537f, -0.25868812f, -0.07657290f, 0.00305837f},
 {0.19691275f, -0.60877794f, -0.06391699f, 0.11113626f, 0.17325567f, -0.25486019f, 0.17776297f, 0.47700459f, -0.28440234f, -0.27608374f},
 {-0.51381737f, 0.06456795f, 0.07922690f, -0.03430752f, -0.12123247f, 0.31993330f, 0.09625103f, -0.10044447f, -0.34332317f, 0.24127847f},
 {0.37183103f, 0.07986769f, -0.15624757f, 0.21849459f, -0.34184575f, -0.08965120f, 0.08371068f, -0.18207417f, -0.19686182f, 0.21203963f},
 {-0.15801875f, 0.12802462f, -0.05882748f, -0.28610086f, -0.10850281f, 0.25042161f, -0.15162352f, 0.33508161f, 0.04434346f, 0.35476080f},
 {0.16758734f, -0.02390138f, 0.27129689f, 0.02508216f, -0.25331837f, 0.19542459f, -0.49243033f, 0.08968712f, -0.16160595f, 0.00115191f},
 {0.08678906f, -0.12625667f, 0.14799562f, 0.00460397f, -0.18113530f, -0.08821774f, 0.13207027f, -0.07264048f, 0.15165222f, -0.44493246f},
 {0.37646288f, 0.04620281f, -0.00300761f, 0.20910580f, 0.09438523f, -0.04997490f, -0.40595931f, -0.37961102f, -0.15639050f, 0.22305872f},
 {-0.19418836f, -0.12704319f, 0.12187381f, -0.03623565f, 0.06822730f, 0.03737095f, 0.25303978f, 0.11140026f, -0.04898671f, -0.38287756f},
 {0.70328033f, -0.19123848f, -0.31344131f, 0.27547461f, 0.38628769f, -0.34078786f, -0.38045186f, 0.06821230f, -0.35316914f, -0.21757162f},
 {-0.53877562f, 0.22831173f, 0.15428263f, -0.11056100f, -0.47190681f, 0.24040210f, 0.16918647f, 0.24817240f, -0.38476756f, 0.30580169f},
 {0.28889430f, -0.15662466f, -0.03313782f, 0.06183218f, -0.30006456f, -0.07772817f, -0.22906891f, -0.06319376f, 0.14765546f, -0.00007144f},
 {0.41300517f, -0.33781299f, 0.00869121f, 0.08745939f, 0.09860207f, -0.10503222f, -0.89602482f, 0.07491516f, 0.46991983f, -0.14707322f},
 {0.13894701f, 0.17917576f, 0.00303389f, 0.03495362f, -0.14237316f, 0.27766556f, -0.00968484f, -0.24682717f, -0.05180460f, 0.26153332f},
 {0.09000868f, -0.37262604f, 0.23116650f, 0.11940446f, -0.34219566f, 0.05592924f, 0.45425540f, -0.08928271f, -0.29420519f, 0.16611169f},
 {0.09529505f, -0.17421679f, 0.04907985f, 0.03770756f, 0.02980044f, -0.13602342f, -0.05273570f, -0.02592070f, -0.10700487f, -0.10204715f},
 {-0.19237947f, -0.10827680f, 0.02467460f, 0.09185506f, 0.05413762f, 0.07693858f, 0.06833926f, 0.06981450f, -0.34473535f, 0.01352656f},
 {0.42230982f, 0.06185672f, -0.15173015f, 0.10326919f, 0.09280680f, -0.29606283f, -0.40938175f, -0.63551676f, 0.41928411f, 0.06081893f},
 {-0.45233658f, 0.13189669f, -0.38271528f, -0.28693810f, -0.05425109f, 0.19339445f, 0.25849658f, 0.08439805f, 0.12213155f, 0.20940797f},
 {-0.35915565f, 0.14491506f, 0.05935357f, 0.38854265f, 0.19147822f, -0.03732336f, -0.47750497f, -0.33510181f, 0.24434057f, -0.05218304f},
 {0.00341340f, 0.42280224f, -0.09058893f, -0.21247824f, -0.03961690f, -0.14437069f, -0.35859025f, 0.29807439f, 0.01567250f, 0.21345684f},
 {0.02482432f, -0.14277382f, 0.00692764f, 0.23927467f, 0.14172804f, -0.06118372f, -0.12272883f, 0.04578482f, -0.17479114f, -0.17224239f},
 {-0.26450777f, 0.06872945f, 0.03153411f, -0.01215100f, -0.37942281f, 0.07132170f, 0.17691064f, -0.05849156f, 0.43614098f, -0.22693805f},
 {0.04276428f, -0.19163987f, 0.00577334f, 0.04617598f, 0.11131583f, -0.16646783f, -0.01442459f, -0.09162093f, -0.09682401f, 0.15095396f},
 {-0.04249966f, -0.06980839f, -0.25515997f, 0.00171704f, 0.17910282f, 0.17058918f, -0.02565767f, 0.12742136f, -0.24808124f, 0.01683170f},
 {-0.62790579f, 0.34561914f, -0.07147029f, 0.13586427f, -0.37072271f, -0.11118554f, 0.22013168f, 0.34625116f, -0.05671892f, 0.18208273f},
 {0.39405575f, 0.36321092f, -0.26787555f, -0.23960786f, -0.08997981f, -0.44866419f, -0.06101063f, -0.63308179f, 0.28194180f, 0.20923616f},
 {-0.01075868f, -0.22056907f, -0.06030990f, 0.14229092f, -0.27820146f, 0.05534341f, -0.19118953f, 0.27332449f, 0.24435775f, -0.23681058f},
 {-0.11895351f, 0.03205675f, -0.04999889f, 0.05096919f, 0.61723667f, 0.09628090f, -0.05083970f, -0.22323675f, 0.02209510f, -0.22918566f},
 {0.22531888f, -0.34860501f, 0.09461880f, 0.23767646f, -0.10847572f, 0.19700004f, -0.21402118f, -0.21461058f, 0.15290236f, -0.18649352f},
 {0.16078149f, -0.47046605f, 0.14643921f, 0.03163740f, 0.14888988f, 0.13711904f, 0.07026740f, -0.73822451f, 0.09529565f, -0.24768613f},
 {-0.03162858f, -0.46370310f, 0.21324278f, 0.22024219f, -0.20907310f, 0.28161559f, -0.35535201f, 0.13946919f, 0.01531705f, 0.37637663f},
 {0.42577407f, -0.19128346f, -0.15066738f, -0.10894808f, 0.03341233f, 0.02756508f, 0.27197602f, 0.13812962f, -0.44979027f, -0.28429452f},
 {-0.64262265f, 0.18269092f, -0.24400254f, -0.21856415f, -0.35937858f, 0.26842743f, 0.49071082f, 0.83835208f, -0.03978601f, -0.11730541f},
 {0.39472038f, -0.23693424f, -0.18362549f, -0.17170997f, 0.24784684f, -0.20919646f, 0.11999559f, -0.30183157f, -0.07448231f, 0.09161357f},
 {-0.02925920f, 0.21903691f, 0.21547014f, 0.06810097f, -0.18320863f, -0.14465022f, 0.05911126f, -0.35341063f, -0.02300413f, 0.11514743f},
 {0.40839562f, -0.16635507f, -0.37613696f, 0.15992251f, -0.05252703f, -0.04739462f, -0.72016293f, 0.60652417f, -0.29562241f, 0.35781753f},
 {-0.02316626f, 0.08070601f, -0.03788573f, 0.34574068f, -0.31115872f, 0.27006343f, -0.03013262f, 0.00486520f, -0.60568810f, -0.02781456f},
 {0.35950330f, 0.01193421f, -0.05089740f, 0.22967909f, 0.01050769f, 0.04862403f, -0.25507233f, -0.44710803f, 0.08630963f, -0.26471758f},
 {-0.17286605f, 0.01416321f, 0.21024771f, -0.01220751f, -0.33638188f, -0.11029361f, -0.63845706f, -0.16123307f, 0.10849331f, 0.58967125f},
 {-0.10001054f, 0.01131536f, -0.12596849f, -0.09763890f, 0.15927750f, 0.11631018f, 0.49136806f, -0.16019778f, 0.14198142f, -0.22570859f},
 {-0.55297303f, 0.20961614f, 0.03122970f, -0.10974126f, -0.31378108f, 0.12837988f, 0.35921043f, 0.03381995f, 0.03720459f, -0.20714130f},
 {0.01131087f, -0.16905645f, -0.19360411f, -0.12459229f, 0.12002145f, -0.08078162f, -0.12268902f, 0.23938031f, -0.10916608f, 0.08884870f},
 {-0.09247757f, 0.00070202f, 0.21610567f, -0.03097693f, -0.07244480f, -0.16375647f, -0.00754197f, -0.16359611f, 0.16529575f, 0.14963195f},
 {0.02166541f, 0.11609608f, -0.28179976f, -0.19349870f, 0.10132224f, 0.06567012f, -0.35660985f, 0.15878388f, -0.00760665f, 0.13776828f},
 {0.06158970f, -0.16227922f, 0.13186923f, 0.19151384f, -0.25046113f, 0.14782652f, -0.31634837f, 0.07615216f, -0.50147718f, 0.07150024f},
 {0.51375294f, -0.26225725f, 0.40102848f, -0.36488089f, 0.10840117f, -0.62672520f, -0.40602314f, 0.06191337f, 0.33960330f, -0.46492198f},
 {-0.06988934f, 0.11979149f, -0.00408842f, 0.10885372f, -0.01101825f, 0.04137983f, -0.88087475f, -0.28892145f, 0.35382807f, 0.76812619f},
 {-0.05258002f, -0.24029310f, -0.12763582f, -0.09123942f, -0.00099859f, 0.43425906f, -0.11850038f, -0.01364739f, 0.03666472f, -0.19169120f},
 {-0.02708727f, 0.08406728f, 0.05609973f, -0.23137793f, 0.10320881f, 0.30628392f, 0.05113530f, 0.08746575f, -0.15252213f, -0.24300936f},
 {-0.08621347f, -0.25348186f, 0.03369399f, -0.09487732f, 0.05095240f, 0.13168263f, -0.19306897f, 0.26515737f, -0.00372061f, 0.06111870f},
 {0.06783208f, 0.24596210f, 0.05995619f, -0.14506137f, -0.09309918f, -0.11150417f, -0.05060298f, -0.36746082f, 0.19414520f, 0.14925162f},
 {0.16651875f, 0.07898548f, -0.06450848f, -0.24810021f, -0.05592277f, 0.06983297f, -0.34084943f, 0.07232816f, 0.04941363f, 0.11794868f},
 {-0.10832436f, -0.08334336f, 0.32723960f, 0.26186183f, -0.13745603f, 0.14021067f, -0.55110347f, 0.15049122f, -0.36733404f, -0.06776569f},
 {0.74735504f, -0.27518380f, -0.10403360f, -0.37690073f, 0.21659628f, 0.00149806f, -0.21254987f, 0.00616135f, -0.00505869f, -0.10100567f},
 {-0.24071634f, -0.15049864f, -0.20241085f, 0.10130130f, -0.22184463f, -0.06217440f, -0.80285847f, -0.02102173f, 0.41785657f, 0.78198314f},
 {-0.21983576f, -0.22204810f, -0.03858880f, -0.10595109f, 0.10541201f, 0.52707845f, -0.42658064f, -0.03544490f, 0.23762363f, 0.06232495f},
 {0.26736119f, -0.13488553f, 0.10103626f, -0.07877540f, 0.16501093f, 0.27682891f, -0.11457427f, 0.31438497f, -0.26411778f, -0.14101903f},
 {0.08431549f, 0.06156978f, 0.26475129f, -0.06674653f, 0.02324151f, 0.25655335f, -0.15348575f, 0.07314651f, -0.21446966f, -0.04628081f},
 {-0.19592388f, 0.34336084f, 0.00486951f, -0.10259008f, -0.11280923f, -0.27773336f, -0.01612684f, -0.14993395f, 0.20595618f, 0.35802144f},
 {-0.02351573f, 0.21065447f, -0.33432186f, -0.12727110f, -0.04924119f, 0.48017672f, -0.28440636f, 0.21312511f, -0.01600372f, 0.03444359f},
 {0.02883016f, 0.07621932f, 0.32381010f, 0.20946755f, -0.28156549f, -0.04211051f, -0.30144113f, 0.07346449f, -0.04156049f, -0.08875234f},
 {0.07282368f, -0.27057442f, 0.18358159f, 0.01083381f, 0.41194224f, -0.30213505f, -0.61165816f, 0.35241380f, 0.09103782f, -0.09017038f},
 {0.11352005f, 0.20173346f, 0.07269274f, 0.08542470f, -0.28725171f, 0.08673185f, -0.67117327f, 0.03590560f, 0.05857345f, 0.15213422f},
 {-0.28987557f, 0.27000234f, -0.21832520f, -0.18312623f, 0.09233283f, 0.15651914f, 0.45702991f, -0.23025942f, 0.05390693f, -0.30361247f},
 {0.36774525f, -0.21634392f, -0.11675046f, -0.00738470f, 0.28612569f, -0.30575493f, 0.06281416f, 0.18471104f, -0.16216394f, -0.39481395f},
 {-0.13521828f, -0.06848667f, 0.21329623f, -0.11588112f, -0.48599681f, 0.36389926f, -0.10664190f, 0.26779395f, -0.06825240f, 0.15264703f},
 {0.12116653f, 0.12009375f, -0.02090287f, 0.12150833f, -0.07345871f, -0.13155237f, -0.01506598f, -0.35052785f, -0.09969995f, -0.01862403f},
 {0.12742269f, 0.03365065f, 0.07368351f, -0.24750932f, 0.11847360f, 0.07034965f, -0.68832850f, 0.05366646f, 0.17123665f, 0.22140071f},
 {-0.13272814f, -0.08932678f, 0.30031264f, -0.10966442f, -0.39473981f, 0.00674965f, 0.18535906f, 0.16106561f, -0.10367025f, -0.03246939f},
 {0.29042980f, -0.05747623f, 0.16391103f, 0.19428766f, -0.05763404f, -0.17092939f, -0.20989087f, -0.31784469f, -0.09763056f, -0.11085811f},
 {0.30946958f, -0.23229131f, 0.17437190f, 0.12873542f, -0.11633550f, 0.07186909f, -0.65757680f, 0.15066129f, 0.02107441f, 0.26438245f},
 {-0.12753384f, 0.23498157f, -0.17701635f, 0.11147617f, -0.07861789f, 0.20257452f, 0.40289044f, 0.04347420f, -0.28955057f, -0.43637919f},
 {0.91751730f, 0.08101097f, -0.08666307f, -0.25876597f, 0.22650664f, -0.36517161f, 0.09075398f, -0.47100562f, 0.13203511f, -0.26593539f},
 {-0.34525549f, 0.12308656f, -0.02856141f, 0.11165908f, -0.42962030f, 0.37222391f, 0.22189590f, 0.41805211f, -0.35818774f, -0.13108170f},
 {0.31233633f, 0.03215479f, -0.17290717f, -0.19438267f, -0.14960364f, -0.20183259f, -0.29419881f, 0.08197220f, 0.24730974f, 0.33072361f},
 {0.15233274f, 0.03116601f, 0.18970329f, -0.16500138f, 0.05587484f, -0.25929600f, -0.60393769f, 0.19151594f, 0.09482361f, 0.05893807f},
 {0.04986742f, -0.37184528f, 0.01812724f, -0.01883665f, -0.02112735f, -0.11676011f, 0.13744448f, -0.02941325f, -0.12489058f, 0.05034231f},
 {-0.08120608f, 0.06891098f, -0.24551857f, 0.07412978f, -0.09291854f, 0.13468774f, 0.07252192f, -0.03734046f, -0.20439917f, 0.08688244f},
 {0.04540743f, -0.07150973f, 0.09148679f, -0.06776212f, 0.02031952f, 0.02886407f, 0.10931865f, -0.06533886f, -0.10790125f, -0.11555526f},
 {0.05788141f, -0.04012628f, -0.03359936f, 0.10943610f, -0.24962580f, 0.06016608f, 0.02820224f, 0.48115173f, -0.21417937f, -0.11916121f},
 {0.05734787f, 0.12730834f, -0.05649433f, 0.07534914f, 0.17906472f, -0.09530465f, -0.10897955f, -0.51115936f, 0.38486236f, 0.10387464f},
 {-0.43546796f, 0.31157225f, -0.65088737f, 0.03180786f, 0.06023671f, 0.07245200f, -0.08483396f, 0.33371726f, 0.09040210f, 0.40942031f},
 {0.43834245f, -0.02325757f, 0.17601204f, -0.08596195f, -0.03592528f, -0.10204677f, 0.04394514f, -0.27242941f, 0.22430952f, -0.19604996f},
 {0.03822336f, 0.08236191f, -0.10567541f, -0.06166656f, 0.04377050f, -0.23912393f, -0.19047910f, 0.44029611f, 0.33736104f, -0.18400422f},
 {0.13492398f, -0.20662819f, 0.02421587f, -0.02515839f, -0.23966046f, -0.01858976f, 0.15965207f, 0.00485517f, -0.12060945f, 0.12552245f},
 {-0.47452617f, 0.15745330f, 0.01169593f, 0.21936820f, -0.54143262f, 0.08247392f, 0.20850222f, -0.13770059f, 0.67105079f, -0.33009431f},
 {0.21026629f, 0.11287783f, 0.01593420f, -0.11980013f, -0.08643979f, 0.06410143f, 0.04208599f, -0.02203078f, 0.02099549f, -0.08409012f},
 {-0.17221770f, -0.05748370f, -0.29911977f, 0.03653141f, -0.05382832f, 0.24766082f, 0.25678882f, -0.09096687f, 0.06524283f, 0.06667116f},
 {-0.45925590f, 0.57148963f, -0.21044025f, 0.28164479f, -0.25505045f, -0.31722263f, 0.23272309f, -0.06239635f, -0.08837383f, 0.29287535f},
 {0.11031105f, 0.27692828f, -0.35488576f, -0.29108000f, -0.00194189f, -0.57388633f, -0.11847220f, -0.42970738f, 0.72807926f, 0.15360989f},
 {0.21385255f, -0.56205589f, 0.21491663f, 0.21347715f, -0.12523262f, 0.09674023f, -0.30166849f, 0.51070064f, 0.00815995f, -0.39368418f},
 {-0.06048748f, -0.21215762f, -0.38093573f, -0.30992153f, 0.27841541f, 0.03578187f, -0.49460366f, 0.39326626f, 0.50976694f, -0.12863651f},
 {-0.04127816f, -0.34338087f, 0.19941641f, 0.25422874f, -0.00674355f, 0.11612356f, 0.12321095f, -0.02457371f, 0.25190145f, -0.35322091f},
 {-0.02680109f, -0.29541758f, 0.09365561f, 0.00005183f, 0.43796584f, 0.16177370f, 0.15811947f, -0.39407602f, 0.29905865f, -0.52358556f},
 {-0.11995202f, -0.22513282f, 0.31443021f, 0.12399209f, -0.16978298f, 0.10432524f, -0.45251766f, 0.21719667f, -0.10414118f, 0.41787803f},
 {0.28158656f, -0.12921028f, 0.01463907f, -0.03839279f, 0.08855312f, 0.04180373f, -0.01708192f, 0.13459878f, -0.02003908f, -0.23543511f},
 {-0.27893066f, 0.16397630f, -0.16329336f, 0.03385905f, -0.22312573f, 0.07897027f, 0.26239777f, 0.75494999f, -0.31378141f, -0.23311630f},
 {0.23754773f, 0.24534197f, -0.16603896f, -0.34545249f, 0.05964743f, -0.09618882f, 0.12748146f, -0.06358209f, 0.13938451f, -0.15042950f},
 {0.22331558f, 0.26071882f, 0.10039845f, -0.13318454f, -0.03177683f, -0.28644165f, 0.16188242f, -0.47992536f, -0.20218639f, 0.16061963f},
 {0.28944105f, 0.25163186f, -0.49928388f, -0.30883238f, 0.19325978f, -0.23603427f, -0.70298600f, 0.33411810f, -0.18968549f, 0.33884433f},
 {-0.13387989f, -0.00972868f, 0.01460779f, 0.24806760f, -0.08335321f, 0.08205917f, -0.20600802f, -0.00139738f, -0.29099041f, 0.03726374f},
 {0.09996977f, 0.11007007f, 0.29394805f, -0.01073878f, 0.08016062f, -0.06106115f, -0.09259349f, -0.26323608f, 0.12797403f, -0.42915434f},
 {-0.17066126f, -0.75610197f, 0.04491229f, -0.00400206f, 0.00362441f, 0.03112019f, -0.44916236f, 0.44970971f, 0.13169144f, 0.38763773f},
 {0.18695053f, -0.31135455f, 0.18592043f, -0.06594619f, -0.13745525f, 0.04321168f, 0.36218938f, 0.03500390f, 0.03611965f, -0.19911285f},
 {-0.18690526f, 0.18034685f, 0.10198948f, 0.00526728f, -0.18237431f, 0.13997307f, 0.17978311f, 0.29219624f, -0.14922352f, -0.22509910f},
 {0.08459139f, -0.09709638f, -0.29372421f, -0.09927084f, 0.06890780f, 0.01352291f, -0.03771043f, 0.44129401f, 0.13221654f, -0.28978735f},
 {0.21141168f, 0.22846332f, -0.21261714f, -0.04436574f, 0.04741054f, -0.56695050f, -0.08307727f, -0.45565471f, 0.32559592f, 0.30096820f},
 {0.31727770f, 0.17433293f, -0.07305022f, -0.26701182f, 0.09519752f, -0.26642686f, -0.65107077f, 0.53294468f, 0.01659960f, 0.13142918f},
 {0.22474253f, -0.36042801f, 0.37092724f, 0.10617896f, 0.01548421f, 0.12988043f, -0.16436675f, 0.27685717f, -0.43177438f, -0.22253075f},
 {0.02784394f, 0.21961974f, 0.26567343f, -0.16294922f, 0.05640928f, -0.24814825f, -0.09099779f, 0.12636186f, 0.04558212f, 0.01047350f},
 {-0.17327544f, -0.79154819f, -0.20427559f, -0.08612587f, -0.23687445f, 0.04599670f, -0.75544065f, 0.32039005f, 0.38936204f, 0.94024080f},
 {0.14376353f, -0.03983668f, 0.00231604f, 0.07535814f, 0.09583723f, 0.36940160f, -0.36193150f, 0.02027518f, -0.06518402f, -0.12378093f},
 {-0.17063110f, 0.03806054f, 0.17519741f, -0.06072593f, -0.06257281f, 0.35072783f, -0.60598171f, 0.22597121f, 0.04316577f, -0.24199228f},
 {-0.13214761f, -0.04985310f, -0.03364640f, 0.02985983f, 0.08694064f, 0.07420189f, -0.16500993f, 0.46248332f, -0.12359150f, -0.12838407f},
 {0.06448413f, 0.18866280f, 0.13508803f, -0.29408270f, -0.07661546f, -0.13088715f, 0.08167453f, -0.69417733f, 0.21171722f, 0.07287314f},
 {0.20237735f, 0.18377919f, -0.11519300f, -0.26817477f, 0.40444282f, -0.22439277f, -0.83157581f, 0.22454281f, 0.06801089f, 0.04693018f},
 {0.21339530f, 0.01224424f, 0.49080062f, 0.16935526f, 0.02370041f, -0.01945299f, -0.30970073f, -0.03951419f, -0.25211975f, -0.34282571f},
 {0.10546692f, 0.07162954f, -0.01494026f, -0.32254869f, -0.02143141f, -0.00244859f, 0.06782369f, 0.13224670f, -0.20525929f, 0.02141509f},
 {-0.02552071f, -0.75501525f, -0.05189438f, 0.13508485f, -0.10119244f, -0.00770247f, -0.83089882f, 0.16727078f, 0.56181449f, 0.82040155f},
 {-0.14714654f, -0.14608404f, 0.03489195f, 0.18291485f, 0.06706990f, 0.31184641f, -0.36777577f, 0.13039985f, 0.02161538f, -0.25140890f},
 {0.03125654f, 0.07333991f, -0.07920283f, -0.03976827f, 0.21131590f, 0.06911492f, -0.52002603f, 0.28130534f, 0.21078873f, -0.42521769f},
 {-0.02812997f, -0.09882212f, 0.31694478f, 0.08022764f, -0.09359267f, 0.12234358f, -0.59683979f, 0.16476618f, -0.05938531f, -0.18632059f},
 {0.01903099f, 0.15526158f, -0.08798208f, -0.07191111f, -0.06282646f, -0.18334296f, 0.12006030f, -0.48099735f, 0.17439422f, 0.12207668f},
 {0.36510658f, 0.22932498f, 0.04671891f, -0.21056318f, 0.37965620f, -0.01831157f, -0.97592884f, 0.22748938f, -0.00159105f, -0.12648322f},
 {0.27379793f, -0.07124161f, 0.27970955f, -0.04219290f, -0.23856109f, 0.15563613f, 0.00329249f, -0.03749381f, -0.33828139f, 0.04871060f},
 {0.33357656f, -0.10646625f, 0.16383082f, -0.05528454f, 0.11787467f, -0.16967198f, -0.93379384f, 0.51379448f, -0.23843844f, -0.08431304f},
 {-0.12515688f, -0.82654202f, 0.14518191f, 0.03194600f, -0.17123610f, 0.10745464f, -0.45777309f, 0.16574524f, 0.07493759f, 0.85208762f},
 {-0.13047214f, -0.09255859f, 0.08944014f, -0.03891829f, 0.00476239f, 0.14066935f, 0.21205786f, 0.12018826f, -0.10666892f, -0.23565345f},
 {0.19600612f, 0.10301650f, -0.10032557f, -0.18171552f, 0.04891042f, 0.03020178f, 0.14220473f, 0.37263227f, -0.11033328f, -0.30304489f},
 {-0.24202083f, 0.09680169f, 0.26506895f, 0.04815089f, -0.30078837f, 0.07255706f, -0.45427278f, 0.50098997f, -0.00192077f, -0.09235568f},
 {0.34698671f, 0.05490813f, -0.00988104f, -0.02950675f, 0.06293868f, -0.24237819f, -0.21135679f, -0.59267020f, 0.36297053f, -0.01652630f},
 {0.21463421f, 0.39512756f, -0.02145627f, -0.51820618f, 0.34007147f, -0.27109125f, -1.20104754f, 0.34552720f, 0.02873763f, 0.43475124f},
 {0.08182520f, -0.24180102f, 0.28500965f, 0.32154176f, -0.10109565f, -0.05647998f, -0.02378310f, -0.08241479f, -0.15743378f, -0.10550562f},
 {0.05798013f, -0.04660990f, 0.39559653f, 0.06993938f, 0.02295869f, 0.28629211f, -0.33649346f, -0.39907375f, -0.22755855f, -0.09094335f},
 {0.02733762f, -0.75020832f, 0.46354043f, -0.02858258f, -0.09727980f, 0.06367592f, -0.41169110f, 0.26632717f, -0.20745356f, 0.39056262f},
 {-0.03364043f, -0.27292871f, -0.13550633f, -0.05843824f, 0.13561739f, 0.03773738f, 0.08540816f, 0.15957619f, -0.17457999f, 0.03403611f},
 {0.56447381f, 0.44180790f, -0.27922729f, -0.38212970f, 0.00443931f, -0.22003247f, 0.17587730f, -0.57014853f, 0.14602576f, -0.15969560f},
 {-0.09052119f, 0.20832285f, 0.02182972f, 0.03763993f, -0.28159326f, -0.05554068f, 0.16632386f, 0.47156826f, -0.21598008f, -0.09358034f},
 {0.41490632f, 0.08850285f, -0.10157774f, -0.03610675f, -0.35694537f, -0.47638407f, 0.00966464f, -0.53204244f, 0.05495142f, 0.23250103f},
 {0.18759881f, 0.03124332f, -0.02856187f, -0.26432309f, 0.06201709f, -0.11712224f, -0.89740717f, 0.48085922f, 0.07964455f, 0.26969582f},
 {0.09552447f, -0.29900226f, 0.12503679f, 0.27286425f, 0.01473348f, -0.09846751f, 0.19380571f, -0.01579200f, 0.23124029f, -0.32488441f},
 {0.10924239f, -0.25569999f, 0.31140414f, 0.26079068f, 0.06513947f, 0.14336669f, 0.17304546f, -0.22763301f, -0.28339568f, -0.18980473f},
 {0.11202869f, -0.09412242f, 0.04149706f, 0.14862829f, 0.10854317f, 0.18343765f, 0.18351008f, -0.12292659f, -0.02360162f, -0.13272597f},
 {-0.13095561f, 0.14534609f, -0.29608706f, 0.10627920f, -0.33582351f, -0.02402346f, -0.07436611f, 0.06304299f, 0.11959372f, 0.21385390f},
 {0.23629978f, -0.00375627f, 0.02874038f, -0.35317534f, 0.13418891f, -0.05897991f, 0.02776943f, -0.66811550f, 0.48966217f, -0.01217755f},
 {-0.29491401f, 0.31570572f, -0.37148818f, 0.16954869f, 0.33386731f, -0.09301212f, 0.05515662f, -0.00076181f, -0.16920903f, 0.30273172f},
 {-0.12424784f, -0.33122870f, 0.37278455f, 0.23290056f, -0.38142499f, 0.17573661f, 0.17207561f, 0.15376650f, 0.36916825f, -0.31947935f},
 {0.01316260f, -0.17207853f, 0.21452634f, -0.29189289f, 0.17593193f, -0.19333401f, -0.15538089f, 0.39788580f, 0.00213077f, -0.29826510f},
 {0.05888446f, -0.06890133f, -0.05716191f, 0.19332841f, -0.08753895f, -0.16596626f, 0.36959478f, -0.34276885f, -0.16041258f, -0.08558413f},
 {-0.42199975f, -0.66608310f, 0.14649668f, 0.20262207f, -0.06992367f, -0.02394164f, 0.19053462f, 0.34715655f, 0.89451271f, -0.71571183f},
 {-0.01710803f, 0.05880786f, 0.08720961f, -0.03727262f, 0.09626613f, -0.21969049f, 0.07250047f, 0.16889295f, -0.21983993f, -0.23642573f},
 {-0.19278161f, 0.19854401f, -0.24015674f, 0.03128665f, 0.05237915f, 0.00202968f, 0.06056046f, -0.16877806f, 0.08583999f, 0.08174206f},
 {-0.31298235f, 0.30882943f, -0.29301444f, 0.26964444f, -0.00661511f, -0.01831448f, 0.08617561f, -0.02016426f, -0.09464715f, 0.18351676f},
 {0.16487400f, 0.26787964f, 0.17247225f, -0.22087885f, 0.08813769f, -0.38814065f, 0.06784733f, -0.57153296f, 0.26423371f, 0.08647631f},
 {0.21653171f, -0.48592961f, 0.16996612f, -0.22301108f, -0.31644309f, -0.10564896f, 0.01515240f, 0.76269525f, 0.14574814f, -0.21356188f},
 {-0.33939043f, -0.32314992f, -0.09367228f, -0.06913883f, 0.33664313f, 0.14923063f, -0.03374774f, 0.36627480f, -0.08895468f, 0.04598213f},
 {0.07624520f, -0.37469336f, 0.14287405f, 0.22568157f, -0.09334612f, -0.06246954f, -0.05251305f, -0.13902289f, 0.32998854f, 0.12808099f},
 {-0.05634746f, -0.56191510f, 0.47405824f, 0.17462645f, 0.20228094f, 0.00637637f, 0.19617735f, -0.12461155f, -0.09549462f, -0.83661753f},
 {-0.37674627f, -0.07839103f, -0.49288464f, -0.07886199f, -0.26637238f, 0.26495188f, -0.08601638f, 0.39168808f, 0.22950894f, 0.42058802f},
 {0.32839328f, 0.47459546f, -0.10988187f, -0.15520939f, -0.20968044f, -0.22449772f, -0.09373196f, -0.17581403f, -0.04741759f, 0.03849110f},
 {0.07749283f, -0.03311642f, 0.00339567f, 0.06280443f, 0.05093520f, 0.00726053f, 0.29794896f, 0.40503603f, -0.51360482f, -0.23806389f},
 {-0.23431486f, 0.11626214f, 0.01536364f, 0.02928682f, -0.07093654f, -0.14193472f, 0.22946168f, -0.29478282f, 0.24849127f, -0.10011250f},
 {0.22423680f, 0.32539317f, 0.09070057f, 0.00453155f, -0.32452512f, -0.17969656f, -0.24842903f, -0.62621975f, 0.17773327f, 0.26724446f},
 {0.05298971f, 0.27253100f, -0.24911249f, -0.24847926f, 0.28989637f, -0.08179077f, -0.54542583f, 0.05385609f, -0.15164079f, 0.36294955f},
 {-0.23178189f, -0.18346043f, 0.08150465f, -0.00561498f, 0.24368346f, 0.19253907f, -0.16607435f, -0.01887107f, 0.32632843f, 0.04384911f},
 {0.21484904f, -0.68998474f, 0.50956547f, -0.04809619f, -0.02316841f, 0.29871848f, -0.50459778f, -0.04989696f, -0.20530364f, -0.22335440f},
 {-0.57122171f, -0.50923753f, -0.45773351f, 0.14519410f, -0.06392770f, 0.14628948f, -0.03142706f, 0.28370944f, 0.41647291f, 0.51995075f},
 {0.13571711f, 0.13786766f, 0.12199473f, -0.11345938f, 0.07056034f, -0.04761157f, 0.26692456f, -0.00993239f, -0.33265135f, -0.10084505f},
 {0.00713537f, 0.26950786f, -0.00488600f, -0.28279173f, -0.07273547f, -0.03021062f, 0.04793117f, 0.40131098f, -0.44354036f, -0.12623699f},
 {-0.12337007f, -0.10026864f, -0.08071367f, -0.04044066f, -0.02352533f, 0.04434323f, 0.15220332f, 0.10226081f, -0.07960647f, -0.21199998f},
 {0.25446290f, -0.06147787f, -0.03140995f, -0.02001569f, -0.19117589f, -0.41044864f, 0.00054503f, -0.46109346f, 0.36308089f, 0.11667489f},
 {0.39850473f, 0.03024096f, -0.06501485f, -0.24312510f, 0.25430202f, -0.18282549f, -1.00320387f, 0.61520708f, -0.11817174f, -0.27226609f},
 {-0.04428278f, -0.15168087f, 0.22770666f, 0.11791780f, -0.07716922f, 0.04176813f, 0.00816345f, -0.16535264f, 0.12806016f, -0.01015298f},
 {0.24809882f, 0.41432047f, 0.22193232f, 0.09393430f, -0.02822508f, 0.09623744f, -0.20045832f, -0.53389621f, -0.61737877f, 0.08058250f},
 {-0.08896758f, -0.47327372f, -0.20497407f, 0.02702881f, 0.30704293f, -0.11991563f, -0.40412909f, 0.07238811f, 0.38202482f, 0.61237901f},
 {0.24499337f, -0.05331750f, -0.11913692f, -0.22300315f, 0.06370153f, -0.26278248f, -0.03947926f, 0.21121363f, -0.31155029f, 0.03198530f},
 {0.30973417f, 0.43017089f, 0.05157730f, -0.21220042f, -0.07363779f, -0.08821198f, -0.06181416f, -0.18181598f, -0.21431608f, -0.12535369f},
 {0.13542421f, 0.10140704f, -0.02775696f, 0.21376452f, -0.16644596f, 0.20199311f, 0.17200467f, 0.12407000f, -0.33900291f, -0.26836041f},
 {0.06082175f, -0.07919503f, -0.08854952f, -0.43946385f, -0.25020075f, -0.43638116f, -0.03812610f, -0.27060822f, 0.46502560f, 0.21082875f},
 {0.03149224f, 0.47389913f, 0.02703563f, -0.30778205f, 0.39747372f, -0.21362752f, -1.52884495f, 0.47460064f, 0.00320851f, -0.08479657f},
 {-0.11905398f, -0.20060262f, -0.01316911f, 0.15383077f, 0.08528099f, 0.10349188f, -0.16922101f, -0.06321127f, 0.05026445f, -0.16510105f},
 {0.26804408f, -0.35033312f, 0.18980055f, -0.07726563f, 0.22176360f, 0.09376621f, -0.21832985f, -0.12409782f, -0.44585341f, 0.24225661f},
 {-0.05780740f, -0.34845236f, -0.39324972f, 0.01898091f, 0.14206532f, -0.10501381f, -0.48177105f, 0.13602181f, 0.32239172f, 0.54830265f},
 {0.36689976f, 0.09448726f, -0.07376841f, -0.22976138f, 0.08453146f, -0.13500075f, -0.11948997f, 0.36894605f, -0.42783219f, 0.01419253f},
 {0.13309833f, 0.13944036f, 0.04072043f, 0.14571109f, 0.05935528f, 0.09356797f, 0.01548827f, 0.04286481f, -0.15959737f, -0.25752139f},
 {0.06274235f, 0.15406229f, -0.05689739f, 0.22630639f, -0.19238043f, 0.36993355f, -0.26600638f, -0.04297902f, -0.24390607f, -0.08055609f},
 {0.05499251f, 0.09641745f, 0.05529730f, -0.25334972f, -0.48027250f, -0.08689093f, -0.19527332f, -0.19458564f, 0.54135096f, 0.06226068f},
 {0.24689387f, 0.40477842f, -0.22057386f, -0.38435704f, 0.07810640f, -0.27314442f, -1.00942779f, 0.66797543f, -0.16263746f, -0.01395611f},
 {-0.23067403f, -0.01139744f, 0.31046128f, 0.19130756f, 0.16198598f, 0.00945786f, 0.05048243f, -0.17945136f, 0.07774641f, 0.09968647f},
 {-0.32805744f, 0.04118111f, 0.11123022f, -0.03319930f, 0.22601028f, 0.28184873f, -0.49087840f, -0.05186658f, -0.13584964f, 0.13113970f},
 {-0.32990232f, -0.49084413f, -0.02960411f, -0.11231310f, 0.13961111f, 0.10135782f, -0.21247347f, 0.02416008f, 0.25664878f, 0.58402896f},
 {0.02241855f, -0.09527624f, 0.00933358f, -0.25919643f, -0.03167539f, -0.06990954f, 0.07134171f, 0.18260130f, -0.18343760f, 0.20900930f},
 {-0.01263759f, 0.04162702f, 0.05706628f, -0.11718522f, 0.05430498f, 0.13580664f, 0.25667772f, -0.11919466f, 0.06544528f, -0.26584408f},
 {0.26181355f, 0.01890953f, -0.10116221f, 0.07910342f, -0.33181480f, 0.13243774f, -0.04301513f, 0.28402492f, -0.18845597f, -0.24397670f},
 {0.26755443f, 0.14204733f, 0.15641813f, -0.20632984f, -0.08971719f, -0.63168001f, 0.22262317f, -0.84447354f, 0.27077022f, 0.10893865f},
 {0.07059336f, 0.30735794f, -0.13159074f, -0.51104003f, 0.33547136f, -0.14235264f, -1.00152612f, 0.44666994f, 0.10744372f, 0.25287083f},
 {0.03653966f, 0.03269821f, 0.12192719f, 0.24165873f, -0.13850620f, 0.02040533f, 0.05601887f, -0.31708771f, 0.28683212f, -0.03247921f},
 {0.04107681f, 0.02931813f, 0.23386692f, 0.17813924f, -0.08987028f, -0.17989783f, -0.69961709f, 0.28838727f, -0.26554003f, 0.26525044f},
 {-0.19432743f, -0.16045918f, -0.15491971f, 0.01748614f, 0.01607938f, 0.13493082f, -0.18395765f, 0.15468147f, 0.10570136f, 0.27316469f},
 {-0.15452643f, 0.19786075f, -0.08629438f, -0.08093411f, -0.09549035f, -0.06435464f, 0.06443836f, 0.32330811f, -0.18416955f, 0.25894606f},
 {0.19728856f, 0.53596497f, -0.10165534f, 0.03771309f, -0.00134335f, 0.03689195f, 0.22018658f, -1.01745462f, 0.37613723f, -0.09864593f},
 {-0.14684340f, 0.01823669f, 0.12187205f, -0.05175304f, 0.12466137f, 0.22785427f, 0.04967171f, 0.31145632f, -0.29992974f, -0.18116300f},
 {0.28125000f, -0.19825464f, -0.17811880f, -0.25481236f, -0.35604924f, -0.34636727f, -0.23922913f, -0.40556687f, 0.49141386f, 0.17725798f},
 {0.23431772f, 0.02989759f, 0.08355974f, -0.34454063f, 0.35303843f, -0.30933022f, -0.73148209f, 0.07256703f, -0.08725515f, 0.12963371f},
 {-0.05426939f, -0.11826957f, 0.28571913f, 0.07961375f, -0.12405162f, 0.06913093f, -0.04185353f, -0.09860450f, 0.00262383f, -0.17557231f},
 {-0.29665813f, -0.47011778f, 0.31487891f, -0.02730849f, -0.01229008f, 0.43672651f, -0.03043195f, 0.29458141f, -0.07458847f, -0.31997716f},
 {0.01437295f, -0.01216156f, 0.00415600f, -0.02329556f, -0.01586173f, 0.05725137f, -0.00062692f, 0.01732798f, 0.09361989f, -0.07146830f},
 {-0.20056814f, 0.25940007f, -0.41144967f, -0.10510822f, -0.19115198f, -0.03176738f, -0.13112490f, 0.20848596f, 0.41071099f, 0.15820387f},
 {-0.23230441f, -0.00675839f, -0.02100998f, -0.01506252f, -0.09799047f, -0.27781728f, 0.15354085f, -0.38979134f, 0.48684776f, -0.00774231f},
 {-0.32167852f, 0.53301620f, -0.62012124f, 0.17877278f, 0.18495728f, 0.14356513f, 0.18544070f, -0.21277571f, -0.08588135f, 0.23673101f},
 {0.45402941f, -0.47405452f, 0.03141277f, 0.07217963f, -0.06430427f, 0.28060463f, -0.38435155f, 0.41627738f, -0.18939364f, -0.16205351f},
 {0.00783755f, -0.61573559f, 0.41537467f, -0.24307969f, 0.04549504f, -0.24874100f, -0.20721005f, 0.33037388f, -0.00523220f, 0.06313118f},
 {-0.03469618f, -0.18940462f, 0.03926323f, 0.16471796f, 0.08390489f, -0.05795573f, 0.25068957f, -0.01408534f, 0.11799730f, -0.04226700f},
 {0.39522496f, -1.02205229f, -0.23273121f, 0.31860068f, -0.12042884f, 0.16502963f, 0.32138443f, 0.31187078f, 0.61875695f, -1.30692267f},
 {-0.01124684f, -0.05526815f, 0.22035606f, -0.10898280f, 0.14614609f, -0.20340841f, -0.10892142f, 0.44598541f, -0.20018390f, -0.17257075f},
 {-0.25456268f, 0.08405054f, -0.16978106f, -0.15122546f, 0.20300642f, -0.23825078f, 0.41898778f, -0.25976586f, 0.18178475f, -0.01460698f},
 {0.11687609f, 0.04823751f, -0.20129329f, -0.02594157f, 0.05803765f, 0.01925779f, -0.08611394f, 0.32890913f, -0.13770333f, -0.09517059f},
 {0.23074402f, 0.61732274f, -0.28120238f, -0.05040244f, -0.24401733f, -0.25676295f, -0.13569862f, -0.69034320f, 0.23552801f, 0.11792809f},
 {0.33868328f, -0.63198799f, 0.29847991f, 0.00267276f, 0.10348798f, 0.08996325f, -0.47676381f, 0.65994322f, -0.14271945f, -0.17180483f},
 {-0.27605802f, -0.30537286f, -0.16654302f, 0.30168390f, 0.72770905f, 0.28342348f, -0.44289547f, 0.35836568f, -0.47154137f, -0.15090509f},
 {-0.40710950f, -0.05722631f, -0.31134936f, 0.22363272f, -0.41941831f, 0.42326128f, -0.07755718f, -0.34222260f, 0.45224661f, 0.00088990f},
 {0.04753095f, -0.10846096f, 0.16394614f, 0.02099252f, -0.01049112f, 0.12025385f, 0.11238663f, -0.06798819f, 0.10354513f, -0.61838269f},
 {-0.38491032f, 0.06418052f, -0.17292978f, 0.16459745f, 0.21307436f, 0.09785026f, 0.10677129f, 0.53120559f, -0.40628463f, 0.00659868f},
 {0.01108916f, 0.41488630f, -0.25158542f, -0.19941150f, 0.11784961f, -0.09582194f, 0.14629775f, -0.11499770f, -0.22354670f, 0.20935631f},
 {0.47382808f, -0.13427825f, 0.14809129f, -0.05416606f, 0.15297349f, -0.04017104f, -0.22927673f, 0.32887599f, -0.86914390f, -0.07536366f},
 {-0.19897482f, 0.11956474f, -0.21167037f, -0.03259550f, -0.18772869f, 0.02910702f, 0.07341045f, -0.16584954f, 0.50366563f, -0.10291985f},
 {0.32850444f, 0.12261466f, -0.13580534f, -0.17319958f, -0.54112440f, -0.29357272f, -0.01508824f, -0.22131886f, 0.23065652f, 0.01690181f},
 {0.11241961f, 0.16492866f, 0.06518577f, -0.15872414f, 0.09167962f, -0.08707704f, -0.56344420f, 0.12450638f, -0.05438267f, 0.16183116f},
 {-0.40501234f, -0.07283317f, -0.23021914f, -0.18822433f, -0.26822758f, 0.40756148f, 0.00741036f, -0.32261211f, 0.57523423f, 0.09256153f},
 {-0.03466279f, 0.36423969f, 0.28452653f, 0.26907644f, -0.06529484f, 0.14186999f, 0.18362166f, -0.06811665f, -0.39584967f, -0.64087200f},
 {-0.14710200f, 0.13503136f, -0.51518613f, -0.03448433f, 0.11159705f, -0.06429241f, -0.35571799f, 0.63396418f, -0.17535309f, 0.20758149f},
 {0.16883254f, 0.17309810f, 0.04578456f, 0.01148726f, -0.04408128f, -0.08133521f, 0.34769681f, -0.07592977f, -0.78308082f, 0.24741566f},
 {0.17855708f, -0.00735772f, 0.15284032f, -0.24407460f, -0.00940499f, 0.00174372f, -0.07668006f, 0.13153653f, -0.58875799f, 0.02276845f},
 {-0.14638990f, -0.24362221f, 0.00470551f, 0.16542406f, -0.11416073f, 0.43654346f, -0.01734803f, -0.21668933f, 0.18818521f, -0.14209932f},
 {-0.19334404f, 0.20857403f, -0.01120665f, -0.11741726f, -0.13108441f, -0.66259664f, -0.05742441f, 0.01189047f, 0.24706100f, 0.16648984f},
 {-0.35183841f, 0.38870847f, -0.00506630f, -0.16004956f, 0.40544108f, -0.17461804f, -0.24224210f, 0.06575941f, -0.05228415f, 0.18752258f},
 {-0.13127162f, -0.12548229f, -0.14436102f, 0.15851343f, -0.10030457f, 0.05519959f, -0.09234486f, -0.47886726f, 0.79407012f, -0.00218084f},
 {0.14235759f, -0.45626751f, 0.42029563f, 0.14484492f, -0.09143560f, 0.11031765f, -0.25647682f, -0.17949562f, -0.00967600f, -0.34561929f},
 {-0.35663792f, 0.42088267f, -0.17482135f, -0.15614656f, 0.18027796f, -0.06307608f, 0.02122032f, 0.45995188f, -0.58761609f, -0.24073341f},
 {0.03621505f, -0.15868258f, -0.01410554f, -0.04336341f, 0.12907036f, -0.07072580f, 0.27324253f, 0.23393904f, -0.85593152f, 0.14569670f},
 {0.42965686f, 0.16462916f, -0.17926627f, -0.22565526f, -0.21788289f, 0.12391826f, 0.03146057f, -0.03979657f, -0.40611878f, 0.17318812f},
 {-0.21002965f, -0.02875274f, -0.21140501f, 0.23684171f, -0.16113846f, 0.37608480f, 0.25232700f, -0.26796284f, -0.05640205f, -0.03503551f},
 {0.30061018f, -0.10862800f, 0.05916535f, -0.21456559f, -0.40838435f, -0.16826932f, 0.06006331f, -0.23614129f, 0.48205256f, 0.10407530f},
 {-0.06803275f, 0.44766507f, -0.09981372f, -0.11970421f, -0.03148071f, -0.32202369f, -0.53372049f, 0.73863399f, -0.23711136f, 0.15549718f},
 {-0.27589485f, -0.03281204f, -0.03316700f, 0.00193366f, -0.03351400f, 0.06719756f, 0.14991865f, -0.49918109f, 0.50388288f, 0.15346532f},
 {0.61189198f, -0.13374022f, -0.10562448f, -0.01514802f, 0.34271151f, -0.16976710f, -0.54493380f, 0.12719551f, 0.13332428f, -0.48513371f},
 {0.02134480f, 0.46068779f, -0.11254895f, -0.25982559f, 0.25624514f, 0.15761399f, -0.00793333f, 0.48216340f, -0.87741590f, -0.23771341f},
 {0.31080365f, -0.05460586f, 0.20971929f, -0.05510317f, 0.31308696f, -0.09834240f, 0.07909606f, 0.32677647f, -0.90649509f, 0.11443000f},
 {-0.14431417f, 0.19840325f, -0.06561935f, 0.22667657f, -0.18726102f, -0.01505213f, 0.32679841f, -0.33597213f, -0.01632676f, 0.00829288f},
 {-0.02408914f, 0.12428540f, 0.04575931f, 0.10008814f, -0.09686507f, 0.23218662f, 0.09060396f, -0.38774163f, -0.13239837f, -0.05598993f},
 {0.03020344f, 0.02914736f, -0.02859918f, -0.20687285f, -0.16789541f, -0.11136786f, -0.06116760f, 0.08461738f, 0.33040923f, -0.21053867f},
 {0.06294634f, 0.23795000f, -0.13111289f, 0.03284297f, -0.27935612f, -0.11891097f, -0.69423258f, 0.78903764f, -0.25181326f, 0.06962516f},
 {-0.15881294f, 0.00455837f, -0.14169405f, 0.15554133f, -0.12782687f, 0.10681919f, 0.02012622f, -0.33660501f, 0.25989258f, 0.04462947f},
 {0.47091317f, -0.17153671f, 0.29923022f, -0.15528356f, -0.25983533f, -0.08035152f, -0.64878863f, 0.28234968f, 0.06400480f, -0.16460708f},
 {-0.26969013f, 0.35553160f, -0.41454294f, -0.06379317f, 0.03752569f, 0.14935929f, -0.09018838f, 0.46452063f, -0.01045866f, -0.13707526f},
 {-0.01416697f, -0.31868622f, 0.05703459f, -0.26053652f, 0.36237574f, -0.15601152f, 0.08420922f, 0.36832666f, -0.67505449f, 0.28950170f},
 {-0.06908811f, 0.26728719f, 0.32621235f, 0.19295433f, -0.17167276f, 0.31716296f, 0.37754092f, -0.29782784f, -0.19098508f, -0.35305879f},
 {0.21082324f, -0.36488146f, -0.04987362f, 0.17795424f, -0.08144628f, 0.11229254f, 0.06366172f, 0.07628734f, -0.07598294f, -0.15028058f},
 {0.17193712f, 0.06381286f, 0.09198054f, -0.02676887f, -0.11803578f, -0.41635460f, -0.10594182f, -0.43425468f, 0.44344416f, 0.05475139f},
 {-0.21563675f, 0.49003536f, -0.07543404f, -0.11300023f, 0.21821468f, -0.26545572f, -0.38332465f, 0.16751672f, -0.17671067f, 0.22205575f},
 {-0.34528545f, 0.08941425f, -0.17805848f, 0.27748561f, -0.03839975f, -0.03634439f, 0.00996740f, -0.50875854f, 0.19056901f, 0.19457100f},
 {-0.01227617f, -0.52590138f, 0.35457391f, 0.02011695f, -0.02100447f, -0.14574906f, -0.22597477f, 0.27261201f, 0.15194614f, -0.64490300f},
 {-0.14013444f, 0.01094788f, -0.26921108f, 0.00910619f, 0.07539673f, -0.05140191f, -0.08811764f, 0.22127834f, 0.13729726f, 0.14992674f},
 {-0.18057224f, 0.27273613f, -0.10963897f, -0.36960512f, 0.07165296f, -0.13457312f, -0.04266636f, 0.33787221f, -0.37961569f, 0.35580528f},
 {-0.19382989f, 0.57971126f, -0.10131589f, 0.12996922f, -0.30652896f, 0.14651138f, 0.30245206f, -0.83059365f, 0.21606971f, -0.16015050f},
 {0.06933866f, -0.28584287f, 0.31464818f, 0.00457463f, -0.11078289f, 0.24338537f, 0.00635305f, 0.14330585f, -0.24762282f, -0.42398259f},
 {0.19833845f, 0.21978220f, -0.04828970f, -0.27102917f, -0.72505957f, -0.47495759f, 0.00777126f, -0.37938318f, 0.49741966f, 0.10680940f},
 {-0.04162434f, 0.26701689f, -0.15225336f, -0.32563931f, 0.16139786f, -0.23827289f, -0.20517088f, 0.32612589f, 0.09641601f, 0.03075040f},
 {-0.05449265f, -0.22340155f, 0.05035343f, 0.20301346f, -0.38201892f, -0.03129687f, 0.15988240f, -0.27337700f, 0.35150737f, 0.00228203f},
 {-0.20351240f, -0.09617028f, 0.12765540f, 0.09376408f, 0.19936159f, 0.08926044f, -0.58374727f, 0.26053157f, 0.02983250f, -0.51096630f},
 {-0.07643406f, 0.06028615f, 0.04220491f, -0.04972126f, 0.03268212f, -0.05519592f, 0.05047905f, -0.02647175f, 0.02504076f, 0.07032223f},
 {-0.15262328f, 0.12037028f, -0.17471220f, -0.23783582f, 0.28167361f, 0.03927202f, -0.09959668f, 0.08599952f, 0.03759963f, -0.03028986f},
 {-0.09349753f, 0.73854309f, 0.02543191f, -0.06822433f, -0.32904387f, -0.15995459f, -0.09351527f, -0.40021744f, 0.26150599f, 0.31434390f},
 {0.03053327f, 0.22725219f, -0.77301079f, 0.07300321f, 0.26183552f, -0.13200460f, 0.02341644f, -0.36860514f, 0.02661338f, 0.19745368f},
 {0.05805759f, 0.10788180f, 0.23188555f, 0.15854406f, 0.54458249f, 0.09372362f, -0.61493343f, 0.18290153f, 0.02332702f, -0.35465991f},
 {0.16142039f, -0.37383336f, 0.38292447f, -0.10214708f, 0.09124658f, -0.02809613f, -0.46239579f, 0.11857485f, -0.31553108f, 0.14041714f},
 {-0.21507382f, -0.42110667f, -0.03149648f, 0.05817025f, 0.03614007f, 0.10919835f, 0.18508595f, -0.25716260f, 0.46948892f, 0.07749496f},
 {0.77060944f, -0.01867761f, 0.01582863f, -0.13362394f, -0.25542447f, -0.29587731f, -0.65900642f, 0.70744175f, 0.65437263f, -1.51144254f},
 {0.12025616f, -0.38668147f, -0.01608675f, -0.09202132f, 0.24587812f, -0.18646845f, -0.15729076f, 0.48961917f, -0.24701510f, -0.28008655f},
 {-0.51586264f, 0.62407809f, -0.24735732f, 0.17609780f, 0.02521729f, 0.06724121f, 0.12587309f, -0.30450472f, 0.01149652f, 0.06714536f},
 {0.47116551f, -0.11752118f, 0.19035199f, 0.13023382f, 0.12535137f, -0.04628820f, -0.12230126f, -0.11962531f, -0.33400637f, -0.29410338f},
 {-0.07371645f, 0.03534907f, 0.06369208f, 0.01641875f, -0.12634705f, -0.59994239f, 0.32649729f, -0.24202734f, 0.31985787f, 0.06778624f},
 {0.17718463f, -0.62598521f, 0.62261695f, 0.23859540f, 0.27993962f, 0.22888686f, -0.40891686f, 0.59790510f, -0.46976739f, -0.40768132f},
 {-0.03013242f, -0.38026175f, -0.04758345f, 0.04370610f, 0.36618656f, -0.17288572f, -0.46458405f, 0.21747769f, -0.11585990f, 0.23991969f},
 {0.00966385f, 0.33772293f, -0.18748595f, 0.07537290f, -0.47824445f, 0.22421841f, -0.38864133f, -0.23307958f, -0.03292588f, 0.22280130f},
 {-0.09066222f, 0.15788829f, 0.14187236f, 0.23517507f, -0.01673118f, -0.01024314f, 0.15015925f, -0.06658514f, -0.30979103f, -0.38246983f},
 {0.23326488f, -0.25220907f, -0.27047321f, -0.05491240f, 0.33117664f, -0.07767420f, -0.51184464f, 0.53835338f, 0.22651346f, -0.10576492f},
 {-0.29527918f, 0.47898218f, -0.29011953f, 0.01611036f, -0.08889177f, -0.22748214f, 0.12280510f, -0.14355825f, -0.28277373f, 0.42899522f},
 {0.62833756f, -0.31291625f, 0.41675246f, -0.14398083f, 0.02672877f, 0.24004135f, -0.42894655f, 0.22872789f, -0.53718942f, -0.34705257f},
 {-0.30615360f, -0.04933266f, -0.24122876f, 0.05863608f, -0.34232607f, 0.22146583f, 0.37880543f, -0.28992015f, 0.49092561f, 0.03900794f},
 {0.16006339f, 0.49282089f, -0.32095236f, -0.14536534f, -0.26649421f, -0.00719616f, -0.08617947f, -0.34413669f, 0.33993399f, 0.07994926f},
 {0.00590992f, 0.02400194f, 0.03573074f, -0.04042156f, 0.04982964f, 0.06342425f, -0.68797606f, 0.19393289f, 0.02529438f, -0.10080200f},
 {-0.00501830f, 0.25827324f, -0.28606972f, 0.17035672f, -0.42579055f, -0.05583628f, -0.23961693f, -0.44998103f, 0.37119120f, 0.32185432f},
 {0.20085913f, 1.02283585f, -0.13254395f, -0.13629860f, -0.19457878f, -0.32562324f, -0.16486798f, -0.37913656f, 0.06907153f, 0.51696157f},
 {0.04526917f, 0.14704429f, -0.00272310f, -0.18305552f, 0.25856483f, 0.06916651f, -0.95546550f, 0.44354689f, -0.34769022f, -0.18066730f},
 {-0.19726519f, 0.25814193f, -0.43528026f, 0.03408890f, -0.26436636f, -0.09708127f, 0.22454460f, -0.03462629f, -0.63785666f, 0.57653636f},
 {0.44547155f, -0.92638510f, 0.30833980f, -0.12295889f, 0.08115906f, 0.11061746f, -0.02279311f, 0.27391392f, -0.29888636f, -0.08768572f},
 {0.03895683f, 0.13273573f, 0.04006585f, 0.13434425f, -0.20797437f, 0.19869702f, 0.00890948f, -0.33910999f, -0.00047384f, -0.15675306f},
 {0.16273710f, 0.31982559f, -0.18165818f, -0.31227121f, -0.29517847f, -0.31935000f, -0.39148691f, 0.21383700f, 0.26483583f, 0.22151440f},
 {-0.18127641f, 0.38611519f, -0.04414989f, -0.01921580f, 0.13763233f, -0.22838850f, -0.33451635f, -0.00674820f, -0.14909211f, 0.08909775f},
 {0.18835430f, 0.69989944f, -0.54760063f, -0.11660957f, -0.49975348f, 0.01415334f, -0.42160460f, -0.49523628f, 0.59741092f, 0.25928265f},
 {0.28641024f, -0.15140679f, 0.12553351f, -0.04767774f, -0.27307546f, -0.03102051f, -0.22428206f, -0.10498706f, 0.01495946f, 0.05632149f},
 {0.00532297f, 0.48553747f, 0.04693091f, -0.20329019f, 0.53891009f, 0.10182142f, -0.47428051f, 0.23178016f, -0.87272066f, -0.13108872f},
 {0.11835918f, 0.41025370f, -0.24138705f, -0.06270181f, -0.23740369f, -0.10722546f, 0.18818955f, 0.12883641f, -0.56461757f, 0.32897007f},
 {0.54962027f, -0.58458054f, -0.04325228f, -0.14626098f, -0.08485124f, 0.08553689f, -0.01524400f, 0.09979743f, -0.37372348f, 0.23372190f},
 {0.11164717f, 0.01356695f, -0.06106605f, 0.36175463f, -0.04581503f, 0.30779681f, 0.22273508f, -0.58791149f, -0.00766544f, -0.36204362f},
 {-0.10693705f, 0.09913535f, -0.36997616f, -0.08218018f, -0.50589681f, -0.04561843f, -0.03046995f, -0.29877856f, 0.58911711f, 0.11835804f},
 {-0.14606468f, 0.51830888f, -0.15015770f, 0.06797634f, 0.21436836f, -0.30985001f, -0.16272055f, 0.35900339f, -0.36203778f, 0.16224356f},
 {-0.14895518f, 0.57390696f, -0.35784113f, -0.13438915f, -0.42470860f, 0.03533881f, -0.14927877f, -0.51697391f, 0.44971707f, 0.39629754f},
 {0.50019079f, -0.04650937f, -0.13089402f, -0.02411847f, -0.18705755f, -0.12469682f, -0.24283436f, -0.35275874f, 0.45183629f, -0.00423440f},
 {-0.37448591f, 0.60768616f, 0.22372587f, -0.14980808f, 0.37232074f, 0.08494932f, -0.58707798f, 0.28534737f, -0.64070880f, 0.00704456f},
 {0.17462826f, 0.16528349f, -0.18204173f, -0.01422938f, -0.04831958f, -0.11307008f, 0.11720517f, 0.03920396f, -0.84947336f, 0.36270109f},
 {0.10701994f, -0.05415614f, -0.24680382f, 0.02624834f, -0.04233011f, 0.17201354f, 0.14197390f, -0.12018609f, -0.13672605f, 0.14809872f},
 {-0.03202771f, -0.33780581f, 0.03261542f, 0.19822529f, -0.00357261f, 0.32917130f, 0.19890708f, -0.35938150f, -0.09505741f, -0.37585151f},
 {0.00282270f, 0.13796483f, 0.19852409f, -0.11920992f, -0.73413837f, -0.43690374f, -0.21359254f, -0.12124640f, 0.56914210f, -0.03601180f},
 {-0.04766909f, 0.49922881f, -0.37647256f, -0.11197931f, -0.14252241f, -0.02086756f, -0.07512660f, -0.03392725f, -0.11204463f, 0.34425211f},
 {-0.09086388f, 0.57354993f, -0.43168685f, -0.08609463f, -0.73811960f, 0.09235004f, -0.11444605f, -0.56665426f, 0.73278016f, 0.53037977f},
 {0.07796811f, -0.50631070f, 0.42984095f, -0.15819038f, -0.14363159f, -0.04457966f, -0.05760776f, -0.04956030f, -0.05873451f, 0.29168046f},
 {-0.08097991f, 0.63595372f, -0.11716481f, -0.09381859f, 0.19006521f, 0.07761033f, -0.60446161f, 0.11890768f, 0.08078265f, -0.06430511f},
 {0.27420986f, -0.02284418f, -0.24530335f, -0.10751975f, -0.11201529f, -0.14223279f, 0.31636551f, 0.10256936f, -0.64423656f, 0.26466143f},
 {-0.00499663f, -0.06030127f, -0.14116780f, 0.15951845f, 0.04499158f, 0.17616862f, 0.25662166f, -0.10766631f, -0.23493668f, 0.03981252f},
 {0.26372367f, -0.75290835f, 0.22568052f, 0.00131602f, 0.37148181f, 0.29020280f, -0.12043881f, -0.03599333f, -0.22041678f, -0.17251530f},
 {0.08271003f, 0.23820899f, -0.19265495f, -0.15666178f, -0.25860211f, -0.34778088f, 0.00689790f, -0.11166050f, 0.40249884f, 0.13324620f},
 {-0.31100470f, 0.41216308f, -0.16834949f, 0.03235131f, 0.21257129f, -0.02348924f, -0.16497742f, -0.13096049f, 0.19313312f, -0.01226502f},
 {-0.38934642f, 0.67081535f, -0.29566288f, 0.17718275f, -0.62710464f, -0.05178078f, -0.20780177f, -0.38150260f, 0.51731408f, 0.27200183f},
 {0.16230802f, -0.34702918f, -0.08207451f, 0.11780877f, -0.29045406f, -0.37871227f, -0.23735739f, 0.41973037f, 0.03497344f, 0.21182963f},
 {-0.04731545f, 0.03056871f, -0.50295556f, 0.00817452f, 0.05014131f, 0.13035373f, -0.55807841f, 0.48640913f, 0.46802878f, -0.14821611f},
 {0.15857986f, 0.53054714f, -0.22473086f, -0.24394229f, -0.02995474f, -0.38968486f, -0.18621315f, 0.27003965f, -0.52875364f, 0.56839329f},
 {-0.13719685f, 0.26722559f, -0.51223367f, 0.30065686f, -0.21782108f, 0.15459593f, 0.32014248f, -0.28192070f, 0.04924954f, 0.15442176f},
 {0.48187026f, -0.03889263f, 0.14706899f, -0.05514809f, -0.12178039f, 0.25776014f, 0.01771196f, -0.35029739f, -0.20136034f, -0.07749683f},
 {0.27084091f, 0.30899298f, 0.01841765f, -0.12604502f, -0.63141763f, -0.11469337f, -0.44992805f, -0.23641758f, 0.40560320f, 0.08464744f},
 {0.18277596f, 0.16308706f, -0.16958964f, -0.16599606f, 0.10624277f, -0.21344636f, -0.63468993f, 0.29305625f, 0.00299386f, 0.18290362f},
 {-0.03787110f, 0.43646169f, -0.31467348f, 0.14386289f, -0.53264207f, 0.04267614f, -0.07708514f, -0.45984918f, 0.49435273f, 0.31591967f},
 {0.09272864f, -0.10284811f, 0.30665490f, -0.19426048f, -0.00909665f, 0.17165749f, -0.31914455f, -0.15878341f, 0.05089762f, -0.05648440f},
 {-0.12607837f, 0.23898403f, -0.21481583f, 0.11549124f, -0.15271533f, -0.22664617f, 0.08272813f, -0.04016488f, 0.07999843f, 0.08597437f},
 {-0.21961275f, -0.26367098f, 0.30514738f, 0.13175905f, 0.13077514f, 0.03492995f, -0.02753422f, 0.08191090f, 0.14819090f, -0.13918008f},
 {-0.32334769f, 0.59847832f, -0.27253634f, 0.09048931f, -0.08228391f, -0.28870153f, 0.12626536f, -0.14950597f, 0.20323750f, 0.32671675f},
 {0.61742586f, 0.07248560f, -0.20507026f, 0.05544527f, -0.05776528f, -0.17959884f, -0.23099123f, -0.27329776f, 0.30369225f, -0.32409850f},
 {-0.17870684f, 0.03515789f, -0.16622992f, -0.01465497f, 0.58154535f, 0.05248944f, 0.38118145f, 0.09520983f, -0.45646477f, 0.17646584f},
 {0.15155406f, -0.32962328f, 0.05537439f, 0.01099998f, -0.10667017f, 0.10741860f, -0.31479567f, 0.25447285f, -0.24904010f, 0.28480124f},
 {-0.02113459f, 0.04624359f, -0.23464823f, 0.27195242f, -0.22992311f, 0.11130492f, 0.19892049f, -0.07665061f, 0.32360455f, -0.00499080f},
 {0.23657973f, 0.05528505f, -0.09904073f, -0.17728636f, -0.56342524f, 0.02485127f, -0.58006829f, 0.25555632f, 0.99194765f, -0.75340027f},
 {-0.09860454f, 0.07825416f, -0.10438271f, -0.19303381f, -0.15239134f, -0.08903968f, 0.24834825f, 0.01282569f, -0.10990141f, 0.04934477f},
 {-0.15081294f, -0.54025328f, 0.33109370f, 0.23157041f, 0.06627451f, -0.06381401f, 0.61049008f, -0.23923424f, -0.04588033f, -0.22161722f},
 {-0.10635630f, -0.26685107f, 0.38410670f, -0.13975959f, 0.21692796f, -0.09579735f, 0.07568352f, 0.02180681f, 0.03622547f, -0.53537351f},
 {0.35080686f, 0.25673458f, -0.03861227f, -0.00467095f, 0.06810769f, -0.21285465f, 0.00982653f, 0.18412665f, -0.61985672f, -0.15411577f},
 {0.15395966f, -0.03865536f, -0.14349589f, -0.35743675f, 0.11406128f, 0.09405064f, 0.13696165f, 0.06506037f, -0.31808302f, 0.09211869f},
 {0.30902863f, -0.18113473f, -0.33041996f, 0.17768013f, -0.15951359f, 0.23907107f, -0.32986084f, 0.05165233f, 0.01055380f, -0.12519991f},
 {-0.21418475f, 0.35340431f, -0.52244538f, 0.13383900f, 0.04547956f, 0.10860701f, -0.50736082f, -0.15120840f, 0.14661609f, 0.27128685f},
 {-0.19017579f, 1.01411128f, -0.54170179f, 0.14427245f, -0.20546712f, 0.11694855f, -0.18237516f, -0.17781897f, 0.00024408f, 0.48816186f},
 {-0.10592354f, -0.27684125f, 0.31961036f, 0.00692108f, 0.15811358f, 0.06526013f, -0.57248831f, 0.67513627f, -0.01081517f, -0.62742198f},
 {-0.21605825f, -0.27549434f, 0.25203910f, -0.06728759f, 0.35799521f, -0.17992997f, 0.25620973f, 0.01083623f, 0.01653942f, -0.14696336f},
 {-0.02835630f, -0.87731701f, 0.22062083f, 0.21992612f, 0.22846280f, 0.29546520f, -0.08901726f, -0.25231525f, 0.10688709f, -0.18233553f},
 {0.08774094f, 0.23527345f, -0.03232953f, 0.21199359f, -0.39448428f, 0.12269285f, 0.21658081f, -0.02743645f, -0.33957976f, -0.24924013f},
 {-0.01765124f, -0.16447631f, 0.10220749f, 0.06868405f, -0.12437433f, 0.04770264f, -0.05104624f, -0.05832580f, -0.06916898f, 0.05843495f},
 {-0.29930770f, 0.09493303f, -0.04109624f, 0.02638800f, 0.27285984f, -0.28950632f, -0.35022613f, 0.03070201f, 0.18028194f, 0.26718366f},
 {-0.23180346f, 0.33442855f, 0.29251513f, 0.14903317f, -0.48661327f, -0.18413176f, -0.13840060f, -0.29089502f, 0.55565858f, 0.24024145f},
 {-0.09206166f, 0.73555458f, -0.42229950f, -0.09264133f, -0.42315197f, -0.06705301f, 0.07868134f, -0.41033718f, 0.10596590f, 0.99514145f},
 {-0.31702760f, -0.56303406f, 0.74043864f, -0.12919401f, 0.12991229f, 0.05397225f, -0.13796905f, 0.37059134f, -0.44894153f, -0.67054856f},
 {-0.34377778f, -0.79986387f, 0.31141797f, 0.06250029f, 0.44025365f, -0.03337992f, 0.45775372f, 0.09235962f, -0.19111401f, -0.03026676f},
 {0.08968677f, -1.05570757f, 0.39195758f, -0.14744382f, 0.15695262f, 0.40585622f, 0.03210882f, -0.01329898f, 0.24693377f, -0.34748417f},
 {0.03967152f, -0.30135858f, -0.04381634f, 0.30998588f, -0.21984753f, 0.13691378f, 0.15906118f, -0.13000859f, -0.24389189f, -0.30070144f},
 {0.12286524f, -0.21074921f, 0.00801668f, 0.11167219f, 0.16407706f, 0.08688087f, -0.01816070f, 0.02971426f, -0.04976245f, -0.20317340f},
 {-0.04779501f, 0.44718733f, -0.18336073f, 0.02962980f, -0.11922633f, -0.40535519f, -0.13616338f, -0.17388628f, -0.14154245f, 0.45988303f},
 {-0.33335242f, 0.50316769f, 0.14748123f, 0.17842284f, -0.12740429f, 0.03997765f, -0.33067414f, -0.33697495f, 0.46622458f, -0.00874389f},
 {0.17410171f, 0.71400207f, -0.43663749f, -0.02610720f, -0.20191766f, -0.11858997f, -0.05531744f, 0.16008659f, -0.27494505f, 0.53647429f},
 {0.40209350f, -0.63555342f, 0.40676016f, -0.04565773f, 0.30222520f, -0.06541073f, -0.44669089f, 0.32567367f, -0.35922191f, -0.79942483f},
 {-0.28290147f, -0.31255397f, 0.52479476f, -0.24905989f, 0.15890467f, -0.25922740f, 0.22639482f, 0.31483719f, -0.04310249f, -0.31940806f},
 {0.25252092f, -0.67279106f, 0.13006805f, -0.15760823f, 0.25421557f, 0.20195232f, 0.21461859f, 0.05475806f, -0.08705032f, -0.40771729f},
 {0.16439469f, -0.41842309f, -0.11037461f, 0.24163142f, -0.31056708f, 0.21592711f, 0.00743451f, -0.22588131f, 0.27829555f, 0.03644781f},
 {-0.07084092f, -0.01057780f, -0.04007228f, 0.07131268f, 0.04423875f, 0.04080516f, 0.04294186f, -0.08836041f, -0.06048378f, -0.02495387f},
 {-0.13863444f, 0.18648046f, -0.18220709f, -0.02709964f, 0.08901966f, 0.11344747f, -0.17679504f, -0.12708256f, 0.12877800f, 0.11861818f},
 {-0.23765253f, -0.01661529f, 0.22791612f, 0.22317761f, -0.21837620f, -0.02694631f, -0.27581263f, -0.44923934f, 0.70946872f, 0.12501137f},
 {0.40168145f, 0.31140518f, -0.41278931f, -0.22863925f, -0.11481570f, -0.21786170f, 0.02595472f, -0.52668852f, 0.28422210f, 0.61963314f},
 {0.42646113f, -0.04475341f, 0.44494730f, -0.17457783f, 0.24189846f, -0.11066787f, -0.46459752f, 0.22364050f, -0.04016826f, -0.86009824f},
 {0.06840729f, -0.50074875f, 0.31551045f, -0.28195012f, 0.39203110f, 0.08457714f, 0.28754926f, 0.01125968f, 0.04793445f, -0.35801318f},
 {-0.09566462f, -0.72263807f, 0.29457372f, 0.28289109f, -0.07197413f, 0.08420908f, 0.44291976f, -0.37595773f, -0.12704228f, -0.36323878f},
 {-0.06523011f, -0.54764968f, 0.25002676f, -0.01837397f, -0.18784191f, 0.22957003f, -0.08503871f, -0.12136109f, -0.00853543f, -0.03448225f},
 {0.07537856f, -0.06652660f, -0.00434609f, 0.01049177f, 0.04567823f, -0.12345494f, 0.02712544f, -0.11905485f, -0.03462739f, 0.02820542f},
 {-0.11311235f, 0.55403799f, -0.11327302f, -0.06501976f, -0.30432728f, 0.06706571f, -0.23343599f, -0.10946893f, 0.15330634f, -0.02158927f},
 {-0.11273839f, -0.13495091f, 0.34738538f, 0.00598856f, -0.15288070f, -0.00631944f, -0.32449958f, -0.18035135f, 0.42248690f, 0.08706001f},
 {0.07095190f, 0.13730599f, -0.31886598f, -0.06804615f, -0.00251295f, -0.15937173f, 0.22572093f, -0.08497256f, 0.02451318f, 0.55812502f},
 {0.05305247f, -0.42654961f, 0.74126601f, -0.13110985f, 0.15785731f, 0.06862941f, -0.47777629f, 0.32568428f, 0.22701912f, -0.78388292f},
 {-0.55068952f, -0.33508298f, 0.41402245f, 0.00947893f, 0.13492687f, 0.02108911f, 0.34532094f, 0.17145470f, -0.09326784f, -0.25426883f},
 {-0.23093750f, -0.00707508f, -0.12176943f, 0.11968985f, 0.24822292f, -0.04208941f, 0.37789512f, -0.37825304f, 0.03455745f, -0.20598410f},
 {0.44545755f, -0.58005267f, 0.37381071f, -0.16788356f, -0.28489846f, 0.28521758f, -0.03543303f, -0.00617246f, -0.16625986f, -0.35099891f},
 {-0.09788483f, 0.06536537f, 0.11815103f, 0.10238895f, -0.07693929f, 0.09343348f, 0.02235020f, -0.14851309f, -0.10223518f, -0.03970486f},
 {-0.05390011f, 0.31968603f, -0.23687920f, -0.22689690f, 0.07181655f, -0.28112385f, -0.27026564f, 0.28133780f, 0.23129103f, 0.26038155f},
 {0.22655343f, -0.44963494f, 0.16061582f, 0.10156634f, -0.14319387f, 0.10087451f, -0.21920845f, -0.05602721f, 0.26655877f, 0.09766379f},
 {0.03034429f, 0.29656678f, -0.21944024f, -0.08840756f, -0.37328282f, -0.26774916f, -0.07545800f, -0.14717738f, 0.30842367f, 0.68444544f},
 {0.20321579f, -0.10767850f, 0.23533416f, -0.08046850f, -0.10823426f, 0.28429338f, -0.22300151f, 0.15002206f, -0.10213742f, -0.56380659f},
 {-0.65201777f, -0.52412373f, 0.31394020f, 0.09848641f, 0.24114598f, 0.02908554f, 0.14573903f, 0.03403791f, 0.11907750f, -0.08221789f},
 {-0.28436014f, 0.57034522f, -0.18884830f, -0.01769649f, -0.23893739f, -0.03177735f, 0.33975095f, -0.47457650f, 0.14750986f, 0.24523918f},
 {0.30486870f, 0.18657364f, 0.03982182f, 0.11101408f, -0.29413801f, 0.20156510f, -0.23999700f, -0.04785398f, -0.01332532f, -0.18122326f},
 {-0.01433802f, 0.00811581f, 0.01297481f, 0.14879824f, -0.14588249f, 0.01578024f, 0.04935241f, -0.17513031f, 0.02069708f, -0.03145446f},
 {0.13625228f, 0.22013097f, -0.12620631f, -0.00515435f, -0.14469828f, -0.06849805f, -0.29486096f, -0.05658529f, 0.16658863f, 0.10020465f},
 {0.48632970f, -0.48803297f, 0.30803329f, 0.24864325f, 0.04535110f, 0.07501597f, -0.02225728f, -0.10438364f, 0.02301765f, -0.31164020f},
 {0.14300610f, 0.71021229f, -0.12802699f, -0.23320335f, -0.21262388f, -0.24980158f, 0.11606184f, -0.15512665f, -0.15749349f, 0.15038563f},
 {-0.21071027f, 0.39944121f, -0.13666157f, -0.22635581f, 0.03556487f, 0.10813756f, -0.03735526f, -0.01056153f, 0.03818675f, 0.03949733f},
 {-0.20999627f, -0.37505245f, 0.39853683f, 0.00772492f, 0.32620227f, -0.18963884f, 0.19963752f, 0.11999818f, 0.15703130f, -0.32350540f},
 {-0.22479358f, 0.29385585f, -0.28572899f, 0.09217012f, 0.00663647f, 0.09385598f, 0.06597118f, 0.10448857f, 0.00322964f, 0.10738862f},
 {0.14808978f, -0.40684807f, 0.24592213f, 0.33209381f, -0.06623910f, -0.39949337f, 0.22780086f, -0.29360029f, 0.02000097f, -0.08357284f},
 {-0.00871949f, -0.12106188f, 0.05261204f, -0.07698953f, -0.01681976f, 0.04378831f, 0.31373724f, -0.06092661f, 0.01197453f, 0.28724721f},
 {0.18865943f, 0.01365712f, 0.13578641f, -0.12092660f, 0.03435824f, -0.03722123f, -0.28016677f, 0.10349689f, -0.41087237f, 0.04524820f},
 {-0.22200710f, -0.37644145f, 0.01024379f, 0.30780071f, -0.00083251f, 0.05484902f, 0.44954371f, -0.38599056f, -0.14727761f, -0.17680427f},
 {0.02590079f, 0.28481224f, -0.39764094f, -0.04692812f, -0.63053477f, -0.12861009f, 0.00898224f, -0.29129764f, 0.74640822f, 0.44396454f}};

/* Dense biases [output_size] */
static const float dense_biases[DENSE_OUTPUT_SIZE] = {-0.53354812f, -0.55004936f, 0.20397453f, 0.17343569f,
 1.25719106f, -0.29545701f, 0.21967229f, -0.53729582f,
 0.37551820f, -0.57231236f};

#endif /* CNN_PARAMS_H */
